// DLFrame.cpp : Defines the entry point for the console application.
//

#include "stdafx.h"
#include <stdlib.h>
#include <iostream>
#include <assert.h>
#include <vector>
#include "Blob.h"
#include "math_function.h"

using namespace std;
using namespace hy17003;

void main()
{
	float kernel_data[54] = {
		/* axis = batch 0 */

		/* axis = channel 0 */
		0.150, 0.214, 0.072,
		0.361, 0.212, -0.175,
		0.267, -0.080, -0.367,

		/* axis = channel 1 */
		0.394, 0.344, -0.058,
		0.035, 0.092, 0.018,
		-0.230, 0.387, -0.179,


		/* axis = batch 1 */

		/* axis = channel 0 */
		0.272, 0.295, 0.079,
		-0.224, -0.406, -0.188,
		-0.010, -0.284, -0.010,

		/* axis = channel 1 */
		0.327, -0.261, -0.369,
		-0.097, -0.165, -0.167,
		0.302, 0.159, -0.019,


		/* axis = batch 2 */

		/* axis = channel 0 */
		-0.014, 0.328, -0.262,
		0.315, -0.372, 0.093,
		0.280, -0.378, 0.310,

		/* axis = channel 1 */
		-0.240, -0.239, 0.348,
		0.014, -0.071, -0.083,
		-0.032, 0.264, 0.353
	};

	float bottom_data[288] =
	{
		/* axis = batch 0 */

		/* axis = channel 0 */
		0.000, 0.000, 0.000, 0.000, 0.000, 0.000, 0.000, 0.000, 0.000, 0.000, 0.000, 0.000,
		0.000, 0.000, -0.031, -0.122, -0.204, -0.092, -0.117, 0.324, 0.338, 0.427, 0.505, 0.222,
		0.000, 0.033, 0.062, 0.417, 0.610, 1.029, 1.033, 1.063, 0.918, 0.818, 0.899, 0.307,
		0.000, 0.010, 0.129, 0.695, 0.901, 1.124, 0.946, 1.024, 0.755, 0.260, 0.257, 0.160,
		0.000, 0.000, -0.068, 0.130, 0.312, 0.859, 0.537, 0.241, 0.284, 0.000, 0.000, 0.000,
		0.000, 0.000, 0.000, 0.011, 0.273, 0.636, 0.663, 0.102, 0.035, 0.000, 0.000, 0.000,
		0.000, 0.000, 0.000, 0.000, -0.040, 0.301, 0.885, 0.756, 0.586, 0.178, 0.000, 0.000,
		0.000, 0.000, 0.000, 0.000, 0.000, -0.204, -0.062, 0.519, 1.086, 0.772, 0.034, 0.000,
		0.000, 0.000, 0.000, -0.025, -0.192, -0.006, 0.438, 0.767, 1.080, 0.888, 0.063, 0.000,
		0.000, -0.018, -0.156, -0.138, 0.434, 0.774, 0.935, 1.000, 0.935, 0.414, 0.002, 0.000,
		0.238, 0.453, 0.718, 0.892, 0.962, 0.948, 0.764, 0.539, 0.153, 0.077, 0.000, 0.000,
		0.003, 0.262, 0.775, 0.855, 0.772, 0.654, 0.170, 0.074, 0.000, 0.000, 0.000, 0.000,

		/* axis = channel 1 */
		0.000, 0.000, 0.000, 0.000, 0.012, 0.020, 0.133, 0.024, 0.111, 0.000, 0.000, 0.000,
		0.000, 0.027, 0.294, 0.171, 0.242, 0.472, 0.747, 0.523, 0.814, 0.796, 0.424, 0.319,
		0.000, 0.050, 0.685, 0.914, 1.315, 0.963, 1.043, 0.907, 0.680, 0.665, 0.323, 0.132,
		0.000, 0.021, 0.621, 0.724, 1.131, 0.746, 0.825, 0.481, 0.484, 0.294, 0.249, 0.017,
		0.000, 0.000, -0.026, 0.446, 1.048, 0.861, 0.551, 0.292, 0.123, 0.000, 0.000, 0.000,
		0.000, 0.000, 0.000, 0.003, 0.752, 0.940, 0.857, 0.591, -0.087, 0.000, 0.000, 0.000,
		0.000, 0.000, 0.000, 0.000, -0.013, 0.855, 0.839, 0.927, 0.456, 0.049, 0.000, 0.000,
		0.000, 0.000, 0.000, 0.000, 0.111, 0.195, 0.969, 1.091, 0.493, 0.354, 0.043, 0.000,
		0.000, 0.000, 0.054, 0.317, 0.408, 0.652, 0.705, 0.816, 0.813, 0.475, 0.009, 0.000,
		0.137, 0.241, 0.315, 0.776, 0.711, 0.672, 0.689, 0.670, 0.569, 0.137, 0.000, 0.000,
		0.391, 0.755, 1.093, 0.948, 0.782, 0.691, 0.467, 0.272, 0.174, 0.000, 0.000, 0.000,
		0.301, 0.325, 0.301, 0.502, 0.321, 0.275, 0.173, 0.000, 0.000, 0.000, 0.000, 0.000
	};


	float weight_data1[7500] = {

		/* axis = batch 0 */

		/* axis = channel 0 */
		0.021, -0.079, 0.085, 0.120, -0.199, -0.104, -0.161, -0.032, -0.005, -0.147, -0.134, 0.122, -0.113, 0.192, 0.005, 0.074, -0.010, -0.101, -0.123, -0.080, -0.021, -0.122, 0.132, 0.093, 0.148, 0.095, 0.017, -0.129, -0.091, -0.015, 0.067, 0.114, -0.115, -0.152, -0.059, -0.194, 0.053, -0.050, -0.109, 0.083, -0.144, -0.079, -0.052, -0.198, 0.084, 0.018, -0.116, 0.091, -0.002, 0.004, -0.109, 0.030, 0.175, 0.085, 0.109, -0.047, -0.165, 0.020, 0.139, -0.046, -0.116, -0.173, 0.148, -0.029, -0.101, 0.158, 0.041, -0.160, -0.102, -0.088, -0.003, 0.109, -0.075, 0.051, -0.144,
		-0.183, -0.186, -0.168, -0.199, -0.133, -0.062, 0.150, 0.177, -0.005, -0.012, -0.003, 0.049, 0.172, -0.168, 0.191, 0.007, -0.136, -0.192, 0.065, -0.177, -0.044, -0.051, -0.088, -0.157, 0.002, 0.046, -0.037, -0.018, -0.098, 0.075, 0.184, 0.120, -0.133, -0.120, 0.075, 0.039, -0.132, -0.144, 0.009, 0.148, -0.029, -0.193, 0.067, -0.170, 0.101, -0.044, -0.022, 0.110, 0.162, -0.191, -0.016, -0.135, -0.007, -0.167, -0.167, 0.151, 0.086, -0.142, -0.085, 0.159, -0.162, 0.063, -0.145, 0.140, 0.160, -0.197, -0.151, 0.073, 0.038, -0.033, -0.027, 0.135, -0.024, -0.134, 0.002,
		-0.044, 0.198, 0.125, 0.171, 0.156, -0.073, -0.039, -0.037, 0.151, 0.170, -0.139, -0.080, 0.026, -0.179, -0.057, 0.182, -0.019, 0.071, 0.040, -0.156, 0.012, -0.023, -0.053, 0.021, 0.163, -0.148, 0.115, -0.047, -0.163, 0.019, -0.175, -0.114, 0.143, -0.181, 0.113, 0.188, 0.021, -0.172, -0.105, -0.196, 0.139, -0.084, 0.166, -0.099, 0.180, -0.048, 0.149, -0.180, 0.025, -0.108, -0.027, 0.014, -0.001, 0.135, 0.039, 0.052, -0.079, -0.039, -0.042, -0.172, -0.120, 0.083, -0.120, 0.168, 0.087, 0.066, -0.097, -0.070, -0.091, -0.026, 0.142, -0.088, -0.147, -0.191, 0.097,
		0.129, -0.172, -0.079, 0.032, -0.105, 0.009, -0.144, 0.156, -0.192, -0.158, -0.057, -0.087, -0.075, 0.030, 0.028, -0.055, -0.187, 0.059, -0.046, 0.187, -0.026, -0.178, -0.071, 0.079, 0.019, 0.150, -0.160, -0.098, -0.079, -0.188, -0.173, 0.009, -0.086, -0.095, -0.139, -0.172, -0.129, 0.171, -0.159, -0.051, -0.170, 0.019, 0.078, -0.130, 0.126, 0.070, 0.126, 0.142, 0.045, 0.167, 0.083, 0.108, -0.069, 0.081, -0.054, 0.088, -0.029, -0.175, -0.045, 0.094, -0.045, 0.174, -0.137, 0.053, 0.074, -0.137, -0.192, 0.090, 0.101, -0.098, 0.168, 0.046, -0.160, -0.133, 0.132,
		0.182, -0.009, -0.118, 0.019, -0.103, -0.054, 0.033, -0.045, 0.170, -0.027, -0.064, -0.034, -0.152, -0.001, 0.070, -0.196, -0.010, -0.194, 0.076, 0.000, -0.005, 0.177, -0.088, -0.023, -0.145, -0.175, 0.032, 0.197, -0.027, 0.076, -0.109, -0.168, -0.071, 0.095, -0.035, 0.133, -0.076, -0.050, -0.096, 0.067, 0.077, 0.068, 0.039, -0.167, -0.164, -0.158, 0.148, -0.121, 0.023, 0.056, -0.144, 0.117, 0.099, 0.184, 0.079, -0.101, 0.179, 0.124, -0.044, -0.054, 0.109, -0.100, -0.104, 0.132, -0.134, 0.186, 0.117, 0.102, -0.118, -0.134, -0.004, -0.105, 0.104, 0.187, -0.095,
		0.051, 0.147, 0.081, -0.056, 0.048, -0.136, 0.133, -0.116, -0.190, -0.170, 0.150, -0.025, 0.164, 0.087, -0.077, -0.064, 0.050, -0.081, -0.036, -0.130, 0.133, 0.188, -0.077, -0.093, -0.152, 0.030, 0.134, -0.088, -0.081, -0.015, -0.090, 0.076, 0.127, 0.035, -0.126, 0.113, -0.042, -0.055, 0.088, -0.062, -0.121, -0.161, -0.119, -0.068, -0.056, -0.141, 0.079, 0.120, 0.075, 0.174, -0.097, 0.162, 0.180, -0.197, 0.129, 0.103, -0.193, 0.159, 0.184, -0.176, -0.084, -0.150, -0.183, 0.030, 0.130, -0.077, 0.031, 0.044, -0.074, -0.055, 0.135, 0.086, -0.114, 0.066, 0.196,
		0.012, -0.126, 0.082, -0.114, 0.008, 0.081, 0.012, 0.096, 0.093, 0.144, 0.082, 0.020, -0.020, 0.120, -0.078, -0.100, 0.041, 0.175, 0.131, -0.129, 0.099, -0.125, -0.189, 0.111, -0.072, -0.042, 0.061, -0.091, -0.087, 0.171, 0.173, 0.136, -0.139, 0.022, 0.054, -0.039, -0.013, 0.156, 0.062, 0.049, 0.053, 0.136, -0.174, 0.127, -0.178, 0.176, -0.050, 0.038, 0.179, 0.195, 0.029, 0.062, 0.141, -0.050, -0.026, 0.051, 0.155, 0.147, -0.059, -0.102, 0.153, 0.107, 0.065, -0.009, 0.101, -0.069, -0.037, 0.072, -0.036, 0.061, 0.169, 0.097, -0.154, 0.136, 0.178,
		-0.118, 0.092, 0.197, 0.134, -0.072, 0.068, 0.140, 0.111, -0.126, -0.129, -0.073, -0.146, 0.065, -0.001, 0.062, -0.140, 0.176, -0.105, 0.029, -0.114, -0.118, 0.062, 0.170, -0.073, 0.065, 0.046, 0.162, -0.105, -0.115, -0.178, 0.025, 0.045, -0.166, -0.037, -0.182, 0.097, -0.166, -0.009, -0.200, 0.094, -0.100, 0.139, -0.012, 0.129, -0.190, -0.156, 0.162, 0.124, -0.010, -0.074, 0.140, 0.199, 0.082, 0.028, -0.196, 0.115, 0.116, -0.164, 0.114, -0.175, -0.052, -0.191, -0.164, 0.078, -0.056, -0.160, -0.159, -0.108, 0.051, -0.056, 0.101, 0.145, 0.109, 0.091, 0.046,
		0.082, 0.103, -0.120, 0.102, 0.192, -0.065, -0.118, 0.157, 0.013, 0.058, 0.124, -0.060, -0.015, -0.142, -0.071, 0.156, 0.047, -0.107, -0.153, 0.105, 0.101, 0.147, 0.015, -0.013, 0.115, 0.123, -0.110, -0.134, -0.132, -0.103, -0.066, -0.127, -0.151, 0.043, 0.164, 0.154, -0.118, -0.180, 0.098, -0.082, -0.151, 0.071, 0.011, 0.066, 0.136, 0.012, -0.016, -0.133, -0.004, 0.155, -0.183, -0.103, 0.130, -0.180, -0.128, -0.137, 0.060, 0.025, 0.062, -0.166, -0.073, -0.114, 0.200, -0.122, 0.000, -0.168, 0.125, 0.184, 0.011, -0.052, -0.114, 0.075, 0.075, 0.010, 0.137,
		-0.134, 0.178, 0.082, 0.059, 0.032, 0.006, 0.145, -0.132, 0.058, 0.130, 0.137, -0.046, -0.085, 0.136, 0.007, -0.199, 0.042, -0.035, 0.155, 0.054, -0.172, 0.139, -0.075, 0.113, -0.081, 0.136, 0.136, 0.037, -0.135, -0.015, 0.113, 0.081, -0.097, 0.052, -0.007, 0.142, 0.093, 0.102, 0.032, -0.032, -0.041, 0.088, -0.014, -0.150, 0.149, 0.140, -0.023, -0.092, -0.033, 0.192, 0.185, 0.181, 0.083, 0.175, 0.142, 0.013, -0.063, 0.079, 0.088, 0.146, 0.119, 0.077, -0.174, 0.177, -0.091, 0.189, 0.139, -0.092, 0.051, 0.008, -0.075, 0.128, 0.185, -0.071, 0.132,
		0.042, 0.086, 0.047, -0.131, 0.029, 0.152, -0.200, 0.107, 0.039, -0.141, 0.111, -0.104, 0.169, -0.002, -0.014, -0.079, 0.153, 0.180, -0.170, -0.040, -0.178, 0.006, -0.052, -0.167, -0.076, 0.053, -0.148, -0.174, 0.178, -0.125, 0.145, 0.188, 0.001, -0.158, 0.030, -0.043, -0.181, -0.034, 0.151, 0.049, -0.160, -0.183, -0.145, -0.158, -0.097, -0.155, 0.124, 0.105, 0.065, -0.022, 0.152, -0.025, 0.036, -0.011, 0.123, 0.117, 0.195, 0.087, -0.143, 0.050, -0.129, -0.045, -0.040, -0.081, 0.001, -0.097, -0.052, 0.135, 0.103, -0.093, -0.002, 0.164, -0.176, -0.105, 0.144,
		0.139, -0.082, -0.183, 0.191, 0.078, 0.051, -0.140, 0.083, 0.185, 0.124, 0.050, 0.145, -0.131, 0.104, -0.068, 0.037, 0.035, -0.033, 0.143, 0.199, 0.174, 0.124, 0.146, 0.176, 0.079, -0.148, 0.180, -0.055, 0.075, -0.095, 0.042, -0.064, -0.010, 0.104, -0.076, -0.147, -0.025, 0.188, 0.179, -0.146, -0.113, 0.108, -0.026, 0.063, -0.165, -0.021, 0.196, -0.008, -0.026, 0.085, -0.032, 0.121, -0.030, -0.053, 0.169, -0.074, -0.007, -0.016, -0.177, 0.127, -0.057, 0.080, 0.185, -0.139, 0.085, -0.057, 0.128, 0.089, 0.164, -0.139, -0.086, 0.186, 0.027, -0.171, -0.173,
		-0.147, 0.106, 0.152, 0.181, -0.030, -0.029, 0.162, 0.106, -0.110, -0.135, 0.158, 0.200, -0.199, -0.041, -0.125, -0.145, -0.150, -0.144, -0.168, -0.128, 0.005, 0.101, 0.071, 0.046, -0.172, 0.036, -0.127, 0.111, 0.108, -0.040, -0.006, -0.187, 0.014, -0.053, -0.111, 0.008, 0.130, 0.044, 0.058, 0.140, -0.020, -0.073, -0.148, 0.032, -0.136, -0.041, -0.118, 0.063, -0.108, -0.010, 0.028, -0.042, -0.181, 0.148, -0.175, -0.097, -0.022, 0.084, -0.031, -0.110, 0.196, -0.055, 0.139, -0.119, 0.153, 0.081, -0.017, 0.126, -0.184, 0.118, -0.037, 0.191, -0.150, 0.031, 0.089,
		-0.173, 0.078, 0.151, -0.154, -0.008, -0.097, 0.045, -0.149, -0.177, 0.103, 0.005, -0.132, -0.189, 0.114, -0.086, 0.147, -0.041, 0.189, -0.194, 0.057, -0.040, -0.000, -0.125, -0.039, -0.082, -0.012, -0.076, -0.132, -0.173, 0.151, -0.168, -0.149, -0.168, 0.041, 0.105, -0.057, -0.184, 0.190, 0.200, 0.043, 0.072, -0.068, 0.035, 0.148, 0.196, -0.122, -0.043, -0.061, 0.098, -0.081, 0.049, 0.085, -0.165, 0.183, -0.134, -0.002, -0.015, 0.089, 0.194, -0.152, 0.102, 0.166, 0.170, -0.015, -0.162, 0.010, -0.167, -0.123, 0.147, -0.154, -0.040, -0.132, 0.023, -0.026, 0.149,
		-0.194, 0.146, 0.131, -0.168, -0.132, -0.156, -0.084, 0.135, 0.179, 0.014, 0.051, -0.005, 0.078, 0.069, 0.007, -0.195, 0.192, -0.020, 0.188, -0.078, 0.176, 0.108, 0.067, -0.063, -0.052, -0.020, -0.058, 0.056, -0.131, -0.007, -0.089, 0.047, -0.182, 0.087, -0.132, -0.145, 0.089, 0.033, -0.017, -0.180, 0.021, 0.066, 0.147, 0.096, -0.181, 0.123, 0.185, -0.064, 0.002, -0.029, 0.067, -0.103, 0.161, -0.107, 0.029, -0.002, -0.160, -0.194, 0.066, -0.075, -0.053, -0.013, -0.160, -0.125, -0.034, 0.026, -0.098, -0.032, 0.149, -0.020, -0.027, -0.140, 0.122, 0.002, -0.142,
		0.178, 0.012, -0.199, 0.015, 0.137, -0.086, -0.056, 0.043, -0.149, 0.081, -0.026, 0.092, -0.054, -0.091, 0.172, -0.021, 0.188, 0.114, 0.072, 0.055, -0.041, -0.113, -0.080, -0.197, 0.140, 0.181, 0.023, -0.174, 0.019, -0.200, -0.069, 0.180, 0.142, -0.038, 0.166, -0.002, 0.153, -0.037, 0.107, 0.037, -0.150, 0.082, -0.150, -0.014, 0.024, -0.020, 0.022, 0.014, -0.194, 0.035, 0.104, 0.146, 0.174, -0.039, 0.113, 0.099, -0.181, 0.043, -0.038, 0.046, -0.151, -0.058, 0.034, 0.158, 0.170, -0.006, 0.130, 0.065, -0.008, 0.059, -0.120, 0.116, -0.107, 0.094, -0.135,
		0.028, 0.099, -0.075, -0.133, 0.101, 0.113, 0.069, -0.188, 0.049, 0.012, -0.148, -0.035, 0.007, 0.013, 0.058, -0.004, -0.016, -0.031, -0.165, 0.003, -0.119, -0.104, -0.104, 0.166, 0.102, -0.023, -0.182, 0.161, 0.199, -0.004, 0.053, -0.167, 0.132, 0.069, -0.116, 0.166, -0.028, -0.175, 0.075, -0.103, -0.099, -0.053, -0.065, 0.055, 0.059, 0.164, -0.121, -0.049, 0.128, 0.108, 0.058, 0.083, 0.052, -0.004, -0.140, 0.171, -0.118, -0.013, -0.180, 0.065, 0.051, -0.173, -0.084, 0.121, -0.089, 0.176, 0.116, -0.125, 0.071, -0.192, -0.188, -0.017, -0.164, 0.117, 0.034,
		-0.129, -0.194, -0.145, 0.113, -0.019, -0.142, 0.123, -0.140, -0.113, 0.033, -0.017, 0.082, -0.035, 0.092, 0.175, 0.109, 0.169, 0.022, 0.107, 0.071, -0.064, 0.160, -0.083, 0.152, -0.189, 0.075, 0.185, -0.194, 0.046, 0.071, 0.006, 0.097, 0.192, 0.007, -0.116, -0.163, -0.029, -0.145, 0.019, -0.161, -0.117, 0.120, 0.184, -0.160, 0.162, 0.137, -0.073, 0.131, -0.200, 0.054, 0.154, 0.028, -0.047, 0.044, -0.070, 0.034, 0.170, 0.129, -0.042, -0.111, 0.147, -0.179, -0.135, -0.193, -0.144, 0.129, 0.045, -0.001, 0.135, -0.061, -0.159, -0.042, 0.167, 0.099, 0.134,
		0.149, 0.105, 0.175, -0.119, 0.130, -0.074, -0.030, -0.025, -0.100, -0.048, -0.011, -0.043, 0.034, 0.192, 0.192, 0.044, 0.194, -0.139, -0.184, -0.109, 0.011, -0.125, -0.051, -0.069, -0.145, -0.179, 0.171, 0.053, 0.171, -0.114, 0.015, -0.048, 0.098, -0.103, 0.146, 0.080, 0.152, -0.029, 0.123, -0.037, -0.144, -0.107, 0.126, -0.121, -0.176, -0.040, -0.032, 0.184, 0.066, -0.123, 0.067, -0.011, -0.122, -0.120, -0.060, -0.001, 0.142, -0.104, 0.197, -0.170, 0.091, 0.049, -0.164, 0.026, 0.062, 0.160, -0.188, -0.064, 0.180, 0.111, 0.154, 0.050, -0.023, 0.150, -0.034,
		-0.014, -0.033, 0.110, -0.065, 0.039, -0.004, 0.014, -0.042, 0.013, 0.037, 0.017, 0.165, 0.114, -0.104, 0.106, 0.051, 0.132, -0.112, -0.047, 0.097, 0.077, 0.145, -0.036, -0.018, -0.135, 0.066, 0.085, 0.015, 0.015, -0.171, -0.048, -0.073, -0.165, -0.120, 0.142, -0.172, 0.190, -0.190, -0.103, 0.102, 0.142, 0.013, -0.159, 0.150, 0.181, -0.075, -0.073, -0.196, -0.026, 0.175, 0.010, 0.139, 0.140, -0.006, 0.046, 0.087, 0.131, -0.186, -0.161, -0.198, -0.043, -0.155, 0.109, -0.157, -0.131, -0.043, -0.018, 0.112, 0.180, 0.109, -0.144, -0.040, 0.080, -0.076, 0.124,
		0.125, 0.028, 0.147, -0.044, -0.117, 0.046, 0.177, 0.130, 0.146, 0.129, -0.056, -0.045, -0.073, 0.105, -0.149, 0.083, -0.035, 0.154, -0.094, -0.082, 0.120, -0.106, -0.022, -0.176, -0.111, 0.057, 0.087, 0.146, 0.045, -0.090, -0.076, -0.087, 0.166, -0.144, 0.055, -0.138, -0.166, -0.056, -0.097, -0.058, 0.050, 0.106, 0.055, -0.154, 0.199, -0.010, 0.001, 0.050, 0.101, 0.016, -0.146, -0.056, 0.165, 0.124, 0.188, -0.069, 0.172, -0.197, -0.017, -0.125, 0.163, 0.010, 0.025, 0.145, 0.046, 0.059, 0.040, -0.105, -0.047, 0.143, 0.035, 0.181, 0.126, -0.030, -0.116,
		-0.171, 0.093, -0.069, -0.053, -0.185, -0.037, -0.176, -0.177, 0.114, 0.103, -0.158, -0.043, 0.101, 0.018, 0.073, -0.002, 0.128, 0.152, -0.134, -0.100, -0.080, 0.072, -0.078, 0.157, -0.114, 0.083, -0.064, 0.138, -0.007, -0.065, -0.028, 0.064, 0.061, 0.035, 0.028, 0.134, -0.189, 0.004, 0.104, -0.195, 0.153, 0.060, -0.075, -0.165, -0.106, -0.094, -0.134, 0.142, 0.152, -0.072, -0.124, 0.116, 0.042, -0.097, -0.114, -0.081, 0.171, -0.102, 0.140, 0.154, 0.056, -0.194, 0.031, -0.015, 0.196, 0.044, -0.117, 0.083, 0.023, 0.016, -0.043, 0.057, 0.115, -0.005, -0.086,
		0.146, 0.054, 0.117, -0.089, 0.083, 0.035, 0.099, 0.122, 0.148, -0.075, 0.104, -0.011, -0.107, 0.167, 0.128, -0.002, 0.184, -0.062, -0.167, -0.146, 0.049, 0.063, -0.197, -0.119, -0.158, -0.010, 0.003, 0.015, -0.101, -0.146, 0.178, 0.079, -0.072, -0.173, 0.009, 0.122, -0.076, -0.061, -0.016, 0.077, -0.073, -0.055, -0.109, -0.101, 0.176, -0.050, -0.164, -0.101, 0.071, -0.054, -0.155, 0.086, 0.104, -0.176, -0.127, -0.038, -0.007, -0.150, 0.110, 0.015, 0.071, 0.079, -0.171, -0.001, -0.149, 0.118, 0.002, -0.193, -0.109, 0.151, -0.018, 0.129, -0.091, 0.005, 0.132,
		0.065, 0.135, -0.125, 0.050, -0.148, 0.018, -0.063, 0.063, -0.017, -0.173, 0.127, -0.074, -0.196, -0.067, -0.130, 0.081, 0.041, 0.050, 0.188, 0.081, 0.071, -0.067, -0.172, 0.067, -0.093, -0.140, 0.182, 0.137, 0.167, 0.120, 0.149, -0.068, 0.193, -0.120, 0.193, -0.133, -0.047, 0.048, 0.084, -0.002, -0.073, 0.100, -0.043, 0.093, -0.050, 0.000, 0.144, -0.098, 0.118, -0.170, 0.002, -0.186, -0.011, -0.009, 0.037, 0.077, -0.085, -0.041, 0.081, -0.168, 0.080, -0.052, -0.136, -0.185, -0.157, 0.072, -0.180, -0.049, 0.004, 0.144, 0.035, 0.131, -0.133, -0.077, 0.077,
		-0.179, 0.168, -0.100, 0.093, -0.142, 0.138, -0.060, 0.143, 0.082, 0.020, -0.082, -0.146, -0.165, -0.164, 0.161, -0.181, -0.042, 0.037, -0.041, -0.029, 0.110, 0.143, 0.123, -0.111, 0.065, -0.198, -0.103, -0.182, -0.018, 0.139, -0.071, -0.198, 0.133, 0.055, 0.126, -0.039, -0.087, 0.161, 0.176, -0.157, -0.066, 0.076, 0.168, -0.087, 0.137, 0.042, -0.065, -0.143, 0.037, 0.025, -0.107, 0.073, -0.144, -0.029, 0.032, -0.048, 0.124, 0.090, -0.093, -0.200, -0.116, 0.118, -0.190, 0.164, -0.140, 0.042, -0.142, -0.097, 0.066, 0.172, 0.095, -0.005, 0.165, -0.167, 0.063,
		0.161, 0.181, -0.053, -0.132, -0.033, 0.108, -0.111, 0.052, 0.095, 0.067, 0.076, 0.131, 0.076, 0.171, -0.079, -0.181, -0.198, -0.122, 0.076, 0.080, -0.181, -0.144, 0.039, -0.020, 0.185, -0.058, -0.037, -0.032, -0.196, -0.158, -0.091, -0.064, 0.171, -0.157, 0.118, 0.183, 0.034, -0.003, -0.060, 0.148, 0.038, -0.136, -0.055, 0.130, -0.081, -0.142, -0.195, -0.164, -0.030, -0.085, 0.102, 0.043, -0.132, 0.188, 0.089, 0.106, 0.129, -0.076, 0.150, -0.077, -0.079, 0.087, 0.184, 0.168, -0.164, -0.020, 0.104, 0.008, -0.131, -0.180, 0.065, -0.099, 0.159, -0.135, -0.112,
		0.044, 0.110, -0.155, 0.181, -0.179, 0.165, 0.077, 0.090, 0.176, 0.018, 0.197, 0.179, -0.100, 0.129, 0.166, -0.060, -0.120, 0.151, -0.096, -0.074, 0.128, -0.105, -0.026, 0.104, 0.164, -0.046, -0.184, 0.042, 0.142, 0.056, 0.050, -0.084, -0.130, 0.067, -0.065, 0.011, 0.102, 0.174, 0.075, 0.004, 0.196, -0.140, 0.050, 0.016, -0.014, -0.039, -0.186, -0.098, 0.056, 0.040, -0.200, -0.018, 0.150, 0.054, -0.053, -0.186, 0.137, -0.085, -0.063, 0.061, 0.002, -0.191, -0.200, -0.071, -0.164, -0.068, -0.118, 0.134, 0.121, 0.101, -0.174, -0.177, -0.157, -0.039, -0.026,
		0.056, 0.054, 0.197, 0.109, -0.018, 0.084, -0.084, -0.181, 0.187, -0.077, 0.107, -0.019, 0.183, 0.150, -0.006, -0.070, -0.022, -0.033, 0.016, -0.040, -0.118, -0.147, 0.190, 0.168, 0.019, -0.057, 0.108, -0.083, 0.081, -0.016, -0.199, -0.031, -0.002, 0.016, 0.040, -0.191, 0.077, -0.083, 0.131, -0.132, 0.040, 0.029, 0.098, -0.141, -0.083, 0.072, -0.116, -0.106, -0.127, -0.052, 0.067, -0.105, -0.178, 0.073, 0.078, 0.113, 0.193, 0.170, -0.088, -0.165, 0.029, 0.087, 0.029, -0.152, 0.119, 0.105, -0.171, -0.117, 0.093, -0.134, -0.116, -0.024, -0.052, -0.099, -0.095,
		0.055, -0.040, 0.138, -0.127, 0.035, -0.168, -0.129, 0.151, -0.113, -0.140, 0.086, 0.076, 0.081, 0.138, 0.175, 0.163, -0.060, 0.177, -0.008, 0.050, 0.060, -0.152, 0.172, 0.124, 0.060, -0.151, -0.182, -0.149, 0.080, -0.031, 0.079, -0.155, 0.177, 0.188, 0.008, -0.110, 0.007, -0.015, 0.183, 0.108, -0.089, 0.105, 0.195, -0.182, -0.134, 0.163, -0.195, 0.001, 0.096, -0.046, -0.146, -0.090, -0.117, -0.056, -0.068, 0.004, -0.152, 0.143, 0.088, 0.025, 0.017, 0.040, 0.066, -0.050, 0.041, -0.153, 0.107, -0.116, -0.003, -0.170, 0.058, -0.126, -0.153, 0.192, -0.084,
		-0.113, 0.038, -0.004, 0.027, -0.078, 0.010, 0.089, 0.094, 0.115, 0.070, -0.073, -0.041, -0.168, -0.188, 0.177, 0.065, -0.100, -0.028, 0.069, 0.107, -0.169, 0.025, -0.136, -0.063, 0.009, 0.123, 0.133, -0.122, 0.009, 0.054, -0.027, 0.176, 0.016, -0.184, -0.120, -0.038, 0.032, -0.188, -0.120, 0.111, -0.063, -0.189, -0.144, -0.075, 0.072, 0.142, 0.190, 0.198, 0.027, -0.113, -0.144, 0.177, -0.118, 0.062, 0.141, 0.086, -0.045, 0.009, -0.064, 0.085, 0.173, 0.148, 0.173, -0.125, 0.094, 0.123, -0.128, -0.010, 0.097, 0.182, -0.034, -0.101, -0.096, -0.195, 0.146,
		0.170, 0.110, 0.114, 0.019, -0.162, 0.084, 0.135, 0.174, -0.005, 0.095, -0.124, 0.196, -0.065, 0.099, -0.158, 0.068, -0.193, -0.121, 0.117, -0.104, 0.120, 0.051, -0.021, 0.198, 0.167, 0.137, -0.111, 0.114, -0.062, 0.084, 0.007, -0.118, -0.089, 0.174, -0.050, -0.045, 0.147, 0.071, 0.159, 0.118, 0.137, -0.116, -0.174, -0.139, -0.198, 0.005, -0.177, 0.075, -0.013, -0.196, 0.060, -0.073, -0.071, 0.120, -0.166, -0.002, -0.136, 0.073, 0.055, 0.183, -0.086, -0.126, 0.139, 0.188, 0.067, -0.137, 0.017, -0.171, -0.162, -0.179, -0.026, 0.115, -0.071, 0.182, 0.196,
		-0.015, -0.037, 0.161, -0.085, 0.030, 0.082, 0.078, 0.020, -0.073, -0.056, -0.091, -0.043, -0.138, 0.031, -0.115, 0.175, -0.072, -0.146, -0.002, -0.137, 0.007, -0.098, 0.155, 0.070, 0.110, 0.181, 0.141, 0.108, 0.004, -0.160, 0.114, 0.090, 0.053, -0.192, -0.024, 0.026, -0.197, -0.086, -0.188, -0.128, -0.160, -0.052, 0.041, -0.177, 0.002, 0.005, 0.054, 0.111, 0.071, 0.192, 0.140, -0.157, -0.153, 0.191, 0.096, 0.065, -0.055, -0.030, 0.172, -0.188, -0.049, 0.060, 0.146, 0.186, -0.135, 0.105, 0.058, 0.016, -0.032, -0.174, 0.021, 0.082, -0.161, -0.055, -0.131,
		0.170, 0.084, 0.176, 0.064, 0.120, -0.065, -0.177, -0.192, 0.076, 0.120, 0.078, -0.094, -0.137, -0.066, 0.057, 0.021, 0.181, -0.111, -0.033, 0.152, -0.128, 0.079, -0.038, -0.112, -0.079, 0.135, 0.095, -0.041, 0.129, 0.006, 0.016, -0.055, -0.083, -0.019, 0.186, 0.034, -0.044, -0.126, -0.096, -0.156, 0.066, 0.058, 0.199, 0.144, 0.008, 0.068, 0.019, -0.060, -0.163, -0.106, 0.157, 0.014, -0.091, 0.089, 0.019, 0.013, 0.047, -0.031, -0.056, 0.124, 0.178, -0.009, -0.192, 0.198, -0.147, 0.150, -0.132, 0.126, -0.099, 0.013, -0.178, 0.167, 0.041, 0.025, 0.059,
		-0.187, 0.107, 0.154, -0.050, 0.095, -0.113, -0.156, -0.033, -0.185, -0.116, -0.171, -0.183, 0.029, -0.132, 0.178, 0.116, 0.113, -0.065, 0.138, 0.195, 0.098, 0.161, 0.095, 0.022, 0.003, -0.186, 0.166, -0.169, 0.074, -0.133, 0.144, -0.182, -0.134, -0.116, 0.047, 0.057, 0.073, -0.070, 0.133, 0.148, 0.177, -0.145, 0.089, 0.189, -0.171, 0.127, -0.001, -0.118, 0.062, 0.111, -0.163, -0.011, -0.082, 0.157, 0.048, -0.017, -0.041, -0.036, 0.161, -0.145, 0.044, 0.104, 0.130, -0.126, 0.146, -0.019, 0.081, -0.065, 0.116, -0.084, -0.046, -0.112, 0.101, -0.158, 0.127,
		-0.188, 0.077, -0.110, 0.194, -0.199, -0.034, -0.103, -0.062, 0.003, -0.158, 0.092, 0.014, -0.174, -0.076, 0.091, 0.020, 0.100, -0.119, -0.015, -0.181, -0.170, 0.021, -0.154, 0.018, -0.165, -0.018, 0.117, 0.171, -0.134, -0.068, -0.134, -0.049, 0.147, 0.073, 0.198, -0.119, 0.185, -0.104, 0.003, 0.000, 0.068, -0.139, -0.173, -0.063, 0.029, 0.186, 0.166, -0.147, 0.132, 0.029, -0.151, 0.154, 0.075, -0.178, 0.179, -0.019, -0.132, -0.135, -0.145, 0.124, -0.172, -0.084, -0.084, -0.096, 0.124, 0.115, -0.030, 0.172, 0.200, -0.053, -0.118, 0.093, 0.031, 0.022, 0.022,
		0.162, 0.131, 0.109, -0.025, -0.025, -0.069, 0.144, -0.019, 0.098, -0.065, 0.157, -0.182, -0.173, 0.118, 0.180, -0.011, -0.007, 0.115, -0.170, -0.036, 0.139, 0.178, 0.124, 0.016, 0.027, -0.173, 0.017, 0.010, -0.055, 0.190, 0.053, 0.046, 0.141, 0.081, 0.072, -0.086, -0.162, -0.163, 0.007, 0.155, -0.109, -0.107, 0.068, 0.164, 0.196, -0.016, -0.012, -0.135, -0.131, 0.111, -0.083, 0.068, -0.143, 0.079, 0.059, -0.162, -0.104, -0.021, -0.029, -0.044, -0.173, -0.040, -0.077, -0.064, -0.043, -0.170, -0.197, 0.094, 0.042, -0.024, -0.018, 0.023, 0.033, -0.110, 0.115,
		-0.032, -0.053, -0.199, 0.152, 0.104, 0.159, 0.187, 0.014, 0.089, -0.134, 0.052, 0.142, 0.059, -0.015, -0.064, 0.090, -0.190, -0.041, 0.081, -0.057, 0.033, 0.162, 0.067, -0.014, -0.125, -0.118, 0.112, -0.157, -0.129, 0.178, 0.094, -0.014, -0.061, 0.092, 0.101, 0.131, 0.118, 0.194, 0.097, -0.136, 0.041, -0.120, 0.002, -0.110, 0.130, -0.076, 0.131, -0.137, -0.022, 0.053, 0.110, 0.080, 0.115, 0.076, -0.002, 0.133, -0.145, -0.156, 0.131, -0.168, 0.142, 0.062, 0.032, -0.015, 0.019, 0.150, 0.144, 0.161, 0.162, 0.056, 0.014, 0.076, 0.120, 0.042, 0.192,
		0.014, -0.155, -0.055, -0.069, -0.109, 0.064, -0.045, -0.133, -0.013, -0.195, -0.116, 0.104, -0.062, -0.016, 0.185, -0.160, 0.194, 0.182, -0.037, -0.011, -0.059, 0.035, 0.173, -0.118, -0.003, -0.002, -0.093, 0.018, -0.037, 0.027, -0.107, 0.130, 0.099, 0.009, 0.001, 0.010, 0.119, -0.007, -0.113, -0.131, -0.055, 0.148, -0.147, 0.085, -0.168, -0.136, 0.006, 0.178, -0.017, -0.124, -0.192, -0.142, -0.006, -0.048, 0.108, -0.102, -0.011, -0.160, 0.060, 0.129, 0.103, -0.031, -0.104, -0.056, 0.052, 0.099, -0.122, 0.109, -0.100, -0.181, -0.197, -0.046, -0.020, 0.162, 0.104,
		-0.008, 0.133, -0.081, -0.051, -0.123, -0.029, 0.189, 0.056, 0.121, 0.098, 0.169, -0.012, 0.173, -0.135, 0.068, 0.017, 0.009, 0.082, 0.184, -0.069, 0.084, 0.144, -0.172, -0.052, 0.171, 0.140, 0.103, -0.125, 0.075, -0.002, -0.182, 0.153, -0.010, -0.148, -0.057, -0.117, -0.166, -0.043, -0.034, 0.061, 0.095, 0.135, 0.132, -0.193, -0.108, 0.187, -0.114, -0.185, -0.150, -0.156, -0.108, -0.111, -0.124, -0.163, -0.154, -0.158, -0.081, 0.060, -0.191, 0.177, -0.167, 0.049, -0.162, -0.092, -0.122, 0.074, -0.129, -0.093, -0.117, 0.193, 0.092, 0.006, -0.123, 0.079, 0.085,
		0.042, 0.061, -0.049, -0.009, -0.100, 0.063, 0.022, -0.008, -0.149, 0.059, 0.050, -0.025, 0.133, -0.099, 0.200, 0.148, -0.108, 0.114, -0.110, -0.171, -0.097, 0.071, 0.164, 0.198, 0.160, -0.105, 0.076, 0.071, 0.138, -0.076, 0.174, -0.081, 0.142, -0.158, 0.031, 0.078, 0.067, 0.117, 0.032, -0.146, -0.179, 0.066, -0.073, 0.104, -0.115, 0.046, 0.139, 0.089, 0.117, -0.047, 0.121, 0.109, 0.124, 0.024, 0.103, 0.084, 0.055, 0.064, 0.099, 0.172, 0.153, 0.043, -0.174, -0.101, -0.082, -0.057, 0.173, 0.046, -0.100, -0.190, 0.103, 0.006, -0.122, 0.116, 0.034,
		-0.179, 0.158, 0.138, 0.114, 0.073, 0.026, 0.081, 0.050, 0.150, 0.114, 0.039, 0.153, -0.027, 0.145, -0.033, -0.088, -0.001, -0.067, -0.120, 0.088, 0.119, -0.144, 0.089, -0.163, 0.090, 0.049, -0.143, -0.064, -0.185, -0.124, 0.101, 0.099, 0.104, 0.019, 0.122, -0.087, 0.153, -0.095, 0.032, 0.045, -0.058, 0.159, -0.170, 0.121, 0.142, 0.156, -0.099, 0.012, -0.091, -0.104, 0.078, -0.107, 0.176, 0.043, -0.050, -0.071, 0.145, -0.099, 0.104, 0.131, -0.190, 0.014, -0.152, -0.171, 0.021, -0.019, -0.122, 0.010, -0.186, 0.052, 0.189, -0.042, -0.129, 0.019, 0.002,
		0.078, 0.135, -0.096, -0.003, -0.035, -0.102, 0.165, -0.144, 0.108, -0.170, 0.007, 0.139, 0.130, 0.183, -0.144, 0.189, 0.073, -0.198, 0.097, -0.019, 0.006, -0.061, -0.174, 0.116, 0.032, -0.120, -0.023, -0.110, 0.140, -0.098, -0.029, 0.174, -0.177, -0.008, 0.018, 0.032, 0.075, 0.076, -0.068, -0.087, -0.036, 0.058, -0.116, 0.198, -0.009, 0.168, 0.157, 0.068, -0.163, -0.098, 0.132, -0.021, 0.112, -0.070, -0.057, 0.023, 0.056, 0.085, -0.191, 0.082, -0.132, -0.059, -0.066, -0.030, 0.024, -0.028, -0.145, 0.060, -0.051, -0.024, 0.013, -0.042, -0.001, -0.156, -0.184,
		-0.185, 0.199, 0.069, 0.197, -0.185, 0.146, -0.022, -0.033, -0.017, -0.119, 0.125, 0.169, -0.105, -0.040, -0.175, 0.189, 0.134, 0.140, 0.097, -0.151, 0.148, -0.007, -0.152, -0.034, -0.118, -0.121, -0.023, 0.178, 0.095, 0.151, 0.078, 0.165, 0.053, -0.152, -0.019, 0.081, 0.108, 0.000, -0.041, 0.108, 0.035, -0.176, 0.034, -0.079, 0.071, -0.093, -0.096, -0.024, -0.060, 0.058, -0.096, -0.104, -0.177, 0.090, 0.152, -0.037, 0.105, -0.094, -0.194, -0.026, -0.151, 0.137, 0.191, 0.137, 0.198, 0.163, 0.033, 0.173, -0.077, 0.111, 0.128, -0.051, 0.128, -0.123, -0.154,
		-0.189, 0.074, -0.077, 0.053, 0.056, 0.145, 0.128, -0.126, -0.112, -0.087, -0.120, -0.012, 0.023, -0.174, 0.071, -0.194, -0.030, 0.099, 0.019, -0.194, 0.171, -0.021, 0.096, 0.018, 0.065, -0.159, -0.067, 0.003, 0.046, -0.044, -0.049, -0.115, 0.115, 0.105, 0.006, -0.118, -0.009, -0.011, 0.180, 0.058, 0.172, 0.146, 0.092, -0.017, 0.022, -0.040, -0.139, 0.122, -0.156, -0.105, -0.027, -0.194, 0.054, -0.184, -0.056, -0.180, -0.091, 0.149, -0.044, 0.190, 0.199, 0.122, -0.085, -0.028, 0.131, -0.133, -0.020, 0.006, 0.041, -0.109, -0.113, -0.149, -0.046, -0.189, -0.187,
		-0.023, 0.107, 0.135, -0.160, -0.060, -0.084, -0.042, -0.075, -0.066, 0.105, 0.160, 0.057, 0.165, 0.184, 0.024, -0.003, -0.190, -0.055, -0.185, -0.197, -0.171, 0.088, -0.070, 0.039, 0.089, 0.153, -0.042, -0.143, 0.126, 0.103, 0.155, 0.031, 0.000, 0.116, 0.147, 0.158, 0.140, -0.108, -0.034, -0.032, 0.157, 0.101, 0.121, -0.021, 0.114, 0.106, -0.108, 0.058, 0.180, 0.057, -0.051, -0.064, -0.088, -0.016, 0.016, -0.004, 0.132, 0.059, -0.164, 0.146, -0.169, -0.138, 0.106, -0.199, 0.075, -0.156, -0.110, 0.051, 0.104, -0.138, 0.155, -0.126, 0.027, -0.142, -0.086,
		0.054, 0.121, 0.040, 0.167, -0.081, -0.099, -0.135, -0.022, -0.160, 0.115, -0.120, 0.141, 0.005, 0.156, 0.133, -0.121, -0.058, -0.174, 0.066, 0.069, 0.025, -0.083, -0.031, 0.179, -0.148, 0.165, 0.122, -0.112, 0.192, 0.106, 0.199, -0.003, 0.043, -0.072, -0.083, -0.023, 0.104, -0.080, 0.107, 0.175, 0.085, 0.024, -0.021, -0.139, -0.159, 0.192, -0.083, 0.042, 0.077, 0.093, -0.114, 0.044, -0.046, 0.127, 0.103, -0.009, 0.110, 0.197, -0.153, 0.025, 0.062, 0.191, -0.173, 0.098, 0.042, 0.141, -0.165, -0.098, -0.071, -0.139, -0.086, -0.169, -0.050, 0.194, 0.179,
		-0.093, 0.069, 0.125, 0.064, 0.122, -0.185, 0.168, -0.191, -0.049, -0.145, 0.188, 0.086, 0.046, -0.187, 0.027, -0.184, 0.006, 0.103, -0.183, 0.169, -0.074, 0.082, -0.194, 0.115, -0.026, 0.053, 0.041, 0.200, 0.126, -0.112, -0.109, 0.150, -0.122, 0.065, -0.100, 0.162, -0.065, 0.198, 0.079, -0.107, 0.156, -0.065, 0.167, -0.146, 0.030, 0.145, 0.181, -0.046, -0.069, -0.144, 0.029, -0.014, -0.173, 0.137, -0.158, -0.155, -0.073, -0.174, -0.020, 0.073, -0.086, 0.180, 0.171, 0.011, 0.136, 0.072, 0.042, -0.039, -0.169, 0.084, 0.118, -0.143, -0.158, 0.132, -0.145,
		-0.189, -0.165, 0.081, 0.098, 0.114, 0.098, 0.035, -0.076, 0.182, -0.063, 0.003, -0.068, 0.176, 0.132, 0.107, -0.114, 0.149, 0.130, 0.174, 0.135, -0.105, -0.067, -0.069, 0.018, 0.015, -0.003, -0.022, -0.131, 0.006, 0.128, -0.190, -0.149, -0.081, 0.087, 0.055, -0.115, 0.199, -0.089, -0.158, 0.063, 0.073, 0.001, 0.015, -0.059, 0.119, 0.175, 0.175, 0.113, -0.028, 0.197, -0.100, 0.159, 0.000, -0.097, 0.158, -0.148, -0.024, -0.027, 0.143, 0.049, -0.133, 0.134, 0.170, -0.043, -0.122, 0.013, -0.143, -0.008, 0.051, 0.006, 0.012, -0.018, 0.028, -0.115, -0.101,
		0.135, 0.143, 0.141, -0.068, 0.171, 0.140, 0.173, -0.140, -0.154, 0.114, 0.125, -0.146, 0.068, 0.161, -0.146, -0.071, 0.181, -0.064, 0.178, 0.031, -0.174, -0.191, -0.125, 0.014, -0.140, 0.177, -0.140, 0.027, 0.158, -0.094, 0.120, 0.030, 0.007, 0.160, 0.164, 0.076, 0.054, -0.074, -0.027, 0.124, -0.195, 0.130, 0.162, -0.045, -0.146, -0.089, 0.168, -0.056, -0.050, 0.000, 0.089, 0.145, -0.197, 0.005, -0.024, 0.075, -0.141, 0.037, 0.006, 0.095, -0.106, 0.060, -0.008, 0.015, -0.088, 0.128, 0.188, 0.151, 0.103, -0.146, -0.025, -0.054, 0.027, -0.130, 0.153,
		0.196, 0.106, -0.005, 0.005, -0.021, -0.013, 0.170, 0.043, 0.195, -0.172, -0.052, 0.078, 0.048, -0.045, -0.012, 0.027, -0.036, -0.076, -0.067, -0.152, 0.133, 0.055, -0.001, -0.164, -0.127, -0.059, 0.051, -0.114, -0.133, -0.044, -0.066, 0.105, -0.056, -0.016, 0.101, -0.151, -0.067, 0.092, 0.075, -0.029, -0.094, -0.150, 0.021, 0.077, -0.003, 0.082, -0.153, -0.070, 0.095, 0.028, 0.123, -0.038, -0.040, 0.096, -0.077, -0.060, -0.035, 0.182, -0.083, -0.198, -0.041, 0.052, -0.059, 0.167, 0.136, 0.006, -0.101, 0.124, 0.141, 0.096, -0.152, -0.130, 0.183, 0.176, 0.039,
		0.089, -0.182, -0.191, 0.021, 0.126, 0.191, -0.035, 0.107, -0.048, -0.198, -0.013, -0.167, -0.053, 0.040, -0.094, 0.054, -0.107, -0.080, 0.142, -0.058, 0.108, -0.197, 0.131, -0.039, 0.134, -0.006, 0.134, -0.087, 0.064, 0.054, -0.085, -0.072, 0.020, 0.098, -0.021, 0.131, 0.137, -0.128, 0.008, 0.124, -0.156, 0.015, 0.172, -0.126, -0.164, 0.096, 0.020, 0.069, 0.017, 0.183, -0.116, 0.042, 0.049, 0.063, 0.008, -0.133, -0.028, 0.193, 0.161, -0.144, -0.183, 0.070, -0.195, 0.044, -0.040, -0.154, 0.052, 0.133, 0.121, -0.196, 0.047, -0.167, -0.014, -0.020, -0.090,
		-0.096, 0.110, -0.095, -0.118, 0.159, -0.099, -0.150, -0.080, 0.085, -0.010, -0.009, -0.182, -0.095, -0.133, -0.104, 0.071, -0.100, -0.138, 0.008, 0.179, 0.164, -0.087, -0.055, -0.177, 0.093, -0.104, 0.035, 0.105, -0.063, 0.022, 0.052, 0.083, -0.027, 0.068, -0.114, -0.048, -0.034, 0.053, 0.076, -0.040, 0.005, -0.077, 0.151, 0.076, 0.038, -0.189, -0.174, 0.063, -0.134, 0.026, 0.108, 0.086, -0.143, -0.053, -0.114, 0.125, 0.079, -0.041, 0.060, 0.063, -0.068, -0.035, 0.197, -0.120, 0.009, -0.065, 0.176, 0.178, -0.177, -0.146, 0.001, 0.143, 0.070, 0.072, -0.014,
		-0.109, -0.117, -0.052, 0.131, -0.011, 0.018, 0.185, -0.108, -0.042, -0.189, 0.005, 0.001, 0.142, 0.148, 0.148, -0.180, 0.198, -0.052, -0.111, -0.141, 0.110, -0.066, 0.016, 0.019, -0.178, -0.126, -0.074, 0.175, 0.190, 0.003, 0.122, 0.051, 0.128, 0.093, -0.070, -0.200, 0.028, -0.147, 0.095, 0.149, 0.190, -0.117, -0.147, -0.178, -0.115, 0.067, -0.062, -0.200, -0.151, -0.003, 0.008, 0.111, 0.020, -0.085, -0.197, -0.136, -0.017, -0.038, 0.132, 0.132, -0.042, 0.102, -0.152, -0.143, -0.049, -0.112, 0.086, 0.156, 0.044, -0.010, -0.014, -0.078, -0.200, 0.096, -0.194,
		0.183, 0.125, -0.149, -0.144, 0.139, 0.149, -0.170, 0.043, 0.145, 0.199, -0.141, 0.032, 0.192, -0.137, -0.097, -0.019, -0.151, 0.016, 0.057, 0.046, -0.029, 0.097, -0.050, -0.072, 0.007, 0.094, 0.170, 0.195, 0.108, -0.193, -0.066, -0.087, -0.066, 0.111, 0.109, -0.034, -0.000, 0.082, -0.186, 0.013, -0.082, 0.038, 0.048, -0.076, 0.182, -0.181, -0.002, -0.005, -0.068, -0.137, -0.009, -0.069, 0.005, -0.003, -0.013, 0.086, -0.121, -0.032, -0.109, 0.190, -0.001, -0.081, 0.101, -0.170, 0.120, 0.108, -0.033, 0.169, 0.070, -0.195, -0.104, 0.083, -0.178, 0.100, -0.089,
		-0.172, 0.131, -0.008, -0.189, -0.048, 0.037, 0.017, 0.194, 0.026, 0.184, -0.155, 0.056, 0.004, -0.122, -0.186, 0.018, -0.196, 0.040, -0.198, -0.041, -0.193, -0.013, -0.134, 0.045, -0.104, 0.017, 0.196, -0.118, -0.057, 0.133, 0.175, -0.131, -0.089, -0.100, 0.084, -0.073, 0.064, 0.074, 0.146, 0.155, -0.197, -0.163, -0.124, -0.010, 0.139, -0.035, 0.080, -0.040, 0.032, 0.032, 0.107, 0.186, 0.003, 0.018, -0.054, -0.027, -0.128, 0.170, -0.075, -0.041, -0.106, 0.185, -0.119, -0.058, 0.163, -0.121, 0.105, -0.197, 0.126, -0.041, 0.174, -0.096, 0.185, 0.190, 0.100,
		0.030, 0.192, -0.190, 0.068, 0.038, 0.011, 0.119, 0.198, 0.006, 0.086, 0.085, 0.019, -0.026, 0.018, -0.084, -0.099, 0.163, -0.026, 0.051, -0.146, -0.038, -0.087, 0.126, 0.164, 0.135, -0.183, 0.026, 0.110, -0.111, 0.016, -0.058, 0.039, -0.162, -0.131, 0.144, 0.009, 0.159, 0.068, -0.125, -0.194, 0.069, -0.040, -0.086, 0.056, -0.198, 0.157, 0.093, -0.013, -0.139, -0.007, 0.024, -0.158, -0.001, -0.166, 0.073, 0.078, 0.151, 0.090, -0.194, -0.102, -0.166, 0.077, 0.067, 0.059, 0.154, -0.050, 0.022, -0.040, 0.072, 0.195, 0.153, -0.061, -0.018, -0.092, 0.054,
		0.043, 0.172, 0.001, 0.150, 0.038, -0.157, -0.199, -0.066, -0.126, -0.179, -0.146, -0.143, -0.112, 0.172, 0.169, -0.043, 0.091, -0.126, 0.011, -0.194, -0.074, -0.121, -0.107, -0.104, -0.156, 0.106, 0.075, -0.068, 0.142, -0.174, 0.170, 0.169, -0.131, 0.051, -0.159, -0.196, -0.121, 0.070, -0.063, 0.150, -0.025, 0.147, -0.042, 0.142, 0.038, 0.024, -0.194, -0.023, 0.181, 0.046, -0.198, -0.153, -0.096, -0.082, 0.140, 0.112, 0.178, 0.136, 0.011, 0.056, -0.180, 0.071, -0.039, -0.077, -0.091, -0.113, -0.049, -0.177, 0.006, 0.022, 0.065, 0.189, -0.019, 0.066, 0.090,
		0.028, 0.045, 0.004, 0.097, -0.122, 0.041, 0.143, -0.166, 0.040, 0.161, 0.171, -0.191, -0.119, -0.078, -0.166, 0.172, 0.090, 0.064, 0.189, -0.193, 0.123, 0.023, -0.142, -0.043, -0.198, -0.125, -0.155, -0.008, 0.141, -0.149, 0.010, -0.125, 0.185, -0.110, 0.133, -0.030, 0.186, -0.064, -0.068, 0.199, -0.192, -0.015, -0.093, 0.178, -0.003, 0.096, -0.096, -0.147, -0.049, 0.115, -0.180, -0.133, -0.199, 0.180, 0.197, -0.075, 0.195, 0.056, 0.012, 0.112, 0.183, 0.093, 0.051, 0.055, -0.031, 0.094, 0.078, 0.054, -0.015, 0.044, -0.124, -0.162, 0.199, 0.172, -0.015,
		0.035, -0.134, -0.142, 0.117, 0.186, -0.019, 0.179, 0.098, -0.016, -0.163, -0.196, -0.134, 0.075, -0.091, -0.104, -0.148, 0.156, -0.079, 0.117, 0.117, 0.163, -0.197, -0.182, 0.112, 0.188, 0.018, 0.112, -0.064, 0.022, -0.013, 0.088, 0.043, -0.121, 0.015, 0.128, -0.072, -0.147, 0.034, -0.183, 0.079, -0.113, 0.022, 0.107, 0.036, -0.192, 0.100, 0.039, -0.113, -0.161, -0.148, -0.031, -0.025, -0.118, 0.134, -0.151, 0.009, -0.099, -0.112, -0.024, -0.009, -0.018, -0.009, 0.110, 0.088, -0.119, -0.157, 0.134, 0.134, 0.040, -0.063, 0.185, 0.160, 0.130, -0.047, 0.020,
		0.189, 0.070, 0.101, 0.138, -0.044, 0.067, -0.151, -0.073, -0.098, -0.199, -0.000, -0.062, -0.058, -0.099, -0.091, 0.157, -0.082, -0.032, -0.121, 0.007, 0.018, -0.035, -0.092, 0.088, -0.171, 0.158, 0.165, 0.168, -0.128, 0.038, -0.134, 0.055, -0.125, -0.128, -0.127, -0.021, 0.045, 0.107, -0.036, -0.078, -0.157, 0.148, -0.177, -0.107, -0.042, -0.109, -0.115, -0.193, -0.133, -0.084, -0.162, -0.019, 0.101, -0.019, -0.095, -0.070, 0.105, 0.132, -0.124, -0.125, 0.141, 0.131, 0.154, 0.146, -0.064, 0.089, 0.031, 0.111, -0.198, -0.184, 0.154, -0.007, -0.036, -0.170, -0.119,
		0.112, -0.077, 0.011, -0.164, -0.037, 0.147, 0.151, 0.177, -0.091, 0.101, -0.038, -0.108, 0.121, 0.135, 0.076, -0.146, -0.116, 0.142, -0.159, 0.110, 0.129, -0.170, -0.014, -0.083, -0.114, 0.073, -0.019, 0.108, -0.106, -0.093, 0.125, 0.166, 0.188, -0.126, 0.004, 0.145, -0.029, 0.125, 0.157, -0.136, 0.059, 0.065, 0.160, -0.163, 0.033, 0.032, -0.189, 0.146, 0.001, -0.145, 0.104, 0.073, -0.141, -0.018, -0.012, 0.107, 0.170, 0.041, -0.094, -0.028, -0.146, -0.164, 0.124, 0.087, -0.055, 0.119, 0.065, -0.128, -0.155, 0.166, 0.197, -0.104, -0.043, 0.024, -0.139,
		0.081, -0.086, -0.129, -0.175, -0.061, -0.186, 0.145, -0.085, -0.177, 0.059, 0.005, 0.194, -0.100, 0.093, 0.034, -0.072, -0.008, 0.015, -0.131, 0.034, -0.052, -0.152, 0.093, -0.069, 0.160, -0.193, -0.054, 0.126, 0.019, 0.097, 0.094, -0.074, 0.035, -0.116, -0.180, -0.124, -0.007, -0.129, 0.089, 0.171, 0.040, -0.168, 0.148, 0.036, 0.090, -0.145, 0.045, -0.041, -0.063, -0.033, 0.165, -0.041, 0.160, -0.129, -0.135, 0.106, 0.068, 0.107, 0.009, 0.161, -0.011, 0.194, 0.123, 0.117, -0.115, -0.156, -0.148, -0.059, -0.008, 0.116, 0.156, 0.162, 0.180, -0.030, 0.153,
		0.082, -0.176, -0.020, 0.065, 0.085, -0.172, -0.091, -0.166, 0.126, 0.195, 0.037, -0.086, 0.170, 0.143, 0.019, 0.155, -0.196, -0.140, -0.143, 0.195, -0.043, 0.060, 0.081, -0.037, 0.168, 0.062, 0.182, -0.190, -0.153, -0.037, 0.117, 0.018, -0.098, 0.113, 0.003, -0.001, -0.043, -0.196, -0.136, -0.157, -0.034, 0.175, -0.091, -0.075, 0.056, 0.021, -0.107, -0.105, 0.060, 0.054, -0.088, 0.156, -0.163, -0.158, 0.063, -0.175, -0.122, 0.129, 0.153, -0.022, -0.099, -0.037, -0.133, -0.056, 0.172, -0.195, 0.013, -0.187, 0.166, -0.186, 0.104, 0.116, 0.041, 0.076, 0.012,
		0.007, -0.026, -0.009, 0.015, -0.021, -0.192, -0.006, -0.110, -0.116, 0.116, -0.195, 0.183, -0.100, 0.016, 0.107, -0.100, -0.034, -0.052, -0.167, -0.194, -0.130, -0.050, 0.145, 0.047, 0.178, -0.042, 0.145, 0.189, -0.113, -0.031, 0.062, -0.052, 0.084, -0.101, -0.190, 0.017, -0.135, 0.047, 0.180, -0.136, 0.039, -0.111, 0.050, -0.112, 0.013, -0.163, -0.109, 0.067, -0.150, 0.024, -0.052, 0.151, -0.093, -0.062, -0.083, 0.099, -0.019, -0.095, 0.049, -0.180, 0.015, -0.047, -0.053, 0.059, 0.011, -0.116, -0.197, 0.042, -0.090, -0.107, 0.051, -0.183, 0.009, -0.049, -0.046,
		-0.073, -0.003, -0.053, 0.114, -0.170, -0.087, 0.006, 0.158, 0.184, 0.058, 0.062, -0.123, -0.177, 0.185, -0.052, 0.127, -0.013, 0.103, -0.009, -0.139, -0.063, 0.018, 0.111, 0.154, 0.002, 0.172, -0.157, -0.137, 0.123, -0.094, -0.057, -0.187, -0.076, -0.060, 0.112, 0.064, 0.003, 0.178, 0.130, 0.139, -0.085, 0.135, 0.063, -0.136, -0.164, -0.019, 0.127, 0.124, -0.032, 0.193, -0.071, -0.010, 0.173, -0.008, 0.058, 0.128, -0.128, -0.147, -0.160, -0.172, -0.096, -0.131, -0.020, 0.052, 0.005, 0.148, 0.154, -0.024, -0.057, 0.176, -0.071, 0.035, 0.047, 0.093, 0.180,
		0.149, 0.041, 0.004, 0.145, -0.198, 0.097, 0.095, 0.122, -0.049, 0.012, 0.030, 0.172, -0.190, -0.005, -0.131, 0.183, 0.073, -0.173, 0.070, -0.008, 0.125, -0.194, 0.176, 0.149, 0.191, -0.068, -0.053, -0.095, 0.123, 0.032, 0.160, -0.026, 0.184, 0.172, -0.156, 0.001, 0.184, 0.175, 0.158, -0.138, 0.152, 0.013, -0.158, 0.194, 0.141, -0.044, 0.115, 0.149, 0.179, 0.108, 0.144, -0.019, -0.015, 0.041, -0.117, 0.126, 0.170, 0.164, -0.156, 0.129, 0.055, -0.179, -0.087, -0.041, 0.127, 0.069, -0.079, 0.059, 0.152, -0.152, 0.180, -0.043, -0.002, 0.101, 0.121,
		0.163, 0.084, -0.056, 0.106, 0.174, -0.166, -0.113, -0.040, -0.010, -0.183, 0.075, -0.199, -0.160, -0.172, 0.089, 0.016, 0.011, -0.041, -0.089, -0.159, 0.185, 0.099, 0.023, 0.007, 0.070, 0.030, -0.075, 0.078, -0.076, -0.003, -0.044, 0.069, -0.172, 0.155, -0.084, -0.004, -0.155, 0.093, 0.072, 0.036, 0.160, 0.199, -0.191, 0.042, 0.053, 0.047, -0.087, -0.052, -0.139, -0.071, 0.034, -0.070, 0.185, 0.040, 0.022, 0.065, 0.111, -0.138, -0.167, 0.126, -0.198, 0.051, 0.137, 0.160, 0.013, 0.083, -0.032, -0.089, -0.132, 0.123, -0.193, -0.040, 0.179, 0.097, -0.100,
		0.023, -0.095, 0.067, -0.022, -0.008, 0.073, -0.021, 0.066, -0.153, -0.010, -0.130, 0.157, -0.116, 0.173, -0.196, -0.146, 0.133, -0.002, 0.040, 0.104, -0.034, 0.059, 0.154, 0.056, -0.070, -0.087, 0.038, 0.079, -0.085, -0.017, 0.119, -0.068, -0.134, 0.141, 0.038, -0.109, -0.037, 0.189, -0.054, -0.162, -0.194, 0.199, 0.111, -0.022, 0.085, -0.128, 0.024, -0.193, 0.031, -0.087, -0.036, -0.034, 0.033, 0.146, 0.057, 0.068, -0.031, -0.109, -0.169, 0.131, 0.065, -0.084, 0.197, -0.016, -0.064, 0.095, -0.091, 0.026, 0.157, 0.177, -0.182, 0.018, -0.102, 0.182, 0.018,
		0.053, 0.054, 0.148, 0.196, -0.126, -0.174, -0.094, 0.026, -0.142, 0.142, 0.121, 0.109, 0.007, -0.004, -0.079, 0.157, -0.041, -0.135, 0.068, 0.117, -0.037, 0.197, -0.152, -0.135, -0.010, -0.143, 0.075, 0.019, 0.125, 0.049, 0.033, 0.158, -0.018, -0.040, 0.043, 0.191, -0.165, 0.106, -0.116, -0.136, 0.124, -0.175, 0.106, -0.117, -0.092, -0.099, 0.024, -0.140, 0.074, -0.004, 0.042, -0.006, -0.019, 0.195, -0.154, -0.141, -0.049, -0.177, 0.187, 0.136, -0.102, -0.192, 0.018, -0.115, 0.085, -0.024, -0.120, -0.157, -0.157, -0.116, -0.055, -0.028, 0.102, -0.179, -0.025,
		0.097, -0.095, 0.046, 0.082, -0.024, 0.069, -0.183, -0.110, -0.165, 0.091, -0.076, 0.153, 0.013, -0.056, -0.122, -0.046, -0.014, 0.028, -0.060, 0.018, 0.071, 0.164, -0.140, 0.085, 0.010, 0.058, 0.087, 0.079, -0.077, 0.055, 0.193, -0.070, -0.154, -0.101, -0.182, 0.030, -0.026, -0.080, -0.075, 0.167, 0.130, 0.140, 0.196, 0.054, 0.075, 0.048, 0.038, -0.097, -0.075, -0.112, -0.035, 0.191, 0.154, 0.125, -0.034, -0.198, 0.014, -0.194, 0.052, -0.068, -0.081, -0.159, -0.086, -0.130, 0.041, 0.093, -0.132, 0.057, 0.030, 0.128, -0.114, -0.087, -0.021, 0.034, 0.102,
		-0.061, 0.164, -0.172, 0.088, -0.172, -0.130, -0.002, 0.102, 0.073, -0.075, -0.049, 0.060, 0.113, -0.088, -0.037, 0.177, 0.156, -0.090, -0.047, 0.177, 0.084, -0.110, 0.158, -0.152, -0.083, -0.118, 0.074, 0.112, 0.061, 0.017, -0.163, -0.172, -0.088, -0.092, -0.017, -0.142, -0.104, 0.083, -0.027, -0.195, 0.135, -0.052, 0.142, 0.194, 0.176, -0.026, 0.036, 0.045, -0.013, -0.007, 0.033, -0.023, -0.192, 0.008, 0.171, 0.143, -0.189, 0.081, -0.144, 0.092, -0.150, -0.074, 0.067, 0.138, -0.189, 0.171, 0.082, -0.132, -0.143, -0.053, 0.036, -0.100, -0.067, -0.141, -0.187,
		-0.050, -0.083, -0.141, 0.042, -0.077, 0.092, 0.127, -0.103, 0.008, 0.058, 0.179, 0.136, -0.103, 0.020, 0.187, 0.146, 0.180, -0.091, 0.171, 0.130, 0.150, 0.185, 0.076, 0.042, 0.149, -0.110, -0.135, -0.018, 0.012, 0.095, -0.057, -0.104, 0.045, -0.049, -0.118, 0.193, 0.038, 0.125, 0.004, 0.149, 0.158, 0.059, 0.057, 0.158, -0.117, 0.150, -0.042, 0.005, 0.107, 0.091, 0.172, -0.090, -0.065, -0.152, -0.041, -0.051, 0.178, 0.176, 0.190, 0.087, 0.010, 0.040, -0.004, 0.038, 0.176, -0.057, 0.056, 0.174, -0.045, 0.025, 0.058, 0.090, -0.020, -0.108, 0.068,
		-0.168, -0.075, -0.109, -0.022, -0.124, -0.003, -0.199, 0.062, 0.183, 0.190, -0.044, 0.179, 0.089, -0.042, 0.136, -0.019, -0.183, 0.032, -0.056, -0.098, 0.134, 0.007, 0.033, 0.192, -0.005, 0.098, -0.095, 0.007, -0.084, -0.128, -0.110, 0.146, 0.088, 0.198, -0.068, -0.101, 0.050, 0.055, -0.038, 0.051, -0.167, 0.115, 0.154, 0.162, -0.039, 0.009, 0.128, 0.089, 0.099, 0.126, 0.004, -0.035, -0.057, -0.073, -0.167, -0.158, -0.079, -0.141, 0.187, 0.002, 0.182, -0.186, 0.087, -0.145, 0.020, -0.163, -0.042, -0.087, 0.120, 0.116, 0.116, -0.051, 0.108, 0.178, -0.177,
		0.012, -0.056, -0.184, -0.103, 0.077, -0.027, 0.091, -0.138, 0.139, 0.138, 0.052, -0.163, 0.171, -0.198, 0.147, 0.129, -0.133, -0.162, 0.102, 0.006, 0.028, -0.108, 0.135, 0.193, 0.097, -0.046, -0.115, -0.095, -0.197, 0.153, -0.147, 0.098, 0.155, 0.156, 0.013, -0.080, 0.006, -0.142, -0.041, -0.050, 0.005, -0.099, -0.125, -0.167, -0.003, -0.006, -0.173, -0.155, -0.148, 0.161, 0.135, -0.164, -0.039, 0.142, 0.057, -0.026, -0.096, 0.150, 0.117, 0.144, 0.111, 0.127, 0.122, 0.025, 0.150, -0.034, 0.030, 0.065, -0.107, -0.143, -0.015, -0.167, 0.127, -0.102, -0.165,
		0.045, 0.034, 0.108, -0.025, -0.173, 0.091, 0.170, -0.174, -0.007, -0.113, -0.128, -0.158, 0.055, -0.159, 0.152, -0.003, 0.072, -0.030, 0.023, -0.158, 0.135, -0.124, -0.098, -0.178, -0.114, -0.138, -0.128, 0.070, -0.013, -0.050, 0.102, 0.084, 0.168, -0.091, 0.035, 0.159, -0.018, 0.172, 0.038, -0.144, -0.076, -0.190, 0.002, -0.121, -0.088, -0.099, 0.027, 0.187, 0.100, 0.110, 0.058, 0.109, -0.003, -0.010, -0.049, -0.033, -0.175, 0.182, 0.021, 0.114, -0.029, 0.122, -0.069, -0.186, -0.077, 0.106, -0.191, 0.075, -0.197, 0.117, -0.105, 0.043, -0.072, -0.102, 0.148,
		0.090, -0.132, -0.082, 0.088, 0.102, -0.061, -0.115, 0.020, 0.197, -0.063, -0.132, -0.124, 0.178, -0.043, -0.065, -0.091, -0.081, 0.017, 0.130, 0.038, 0.106, 0.006, 0.045, 0.012, -0.015, 0.161, -0.120, -0.198, 0.147, 0.007, 0.008, -0.141, 0.125, 0.151, 0.176, -0.077, -0.151, 0.065, 0.007, -0.064, -0.054, -0.045, -0.059, 0.025, 0.109, 0.194, 0.091, 0.160, 0.037, -0.131, 0.133, 0.034, -0.130, 0.012, 0.038, -0.008, 0.016, 0.031, 0.027, -0.071, -0.105, 0.045, 0.094, 0.036, -0.036, 0.162, 0.150, 0.044, 0.134, 0.190, -0.075, 0.163, 0.084, -0.108, -0.190,
		-0.033, -0.111, -0.090, 0.086, -0.127, 0.193, -0.153, 0.101, -0.137, -0.163, -0.102, -0.070, 0.081, 0.008, -0.056, -0.128, 0.077, -0.051, 0.050, -0.034, -0.133, -0.165, 0.113, 0.143, -0.041, -0.001, 0.066, -0.097, 0.132, -0.153, 0.035, 0.132, 0.028, -0.041, -0.107, -0.174, 0.054, 0.123, -0.175, -0.000, -0.067, 0.085, -0.074, 0.033, -0.179, -0.124, -0.074, 0.189, -0.045, -0.099, 0.199, 0.028, 0.016, 0.041, -0.035, -0.091, -0.158, -0.014, -0.101, 0.009, -0.136, -0.155, -0.050, 0.189, 0.051, -0.160, -0.158, 0.068, 0.071, -0.130, 0.175, 0.091, 0.067, -0.017, 0.041,
		-0.174, -0.183, 0.003, 0.156, -0.073, 0.127, -0.049, -0.038, -0.007, -0.001, -0.050, 0.188, 0.023, 0.035, 0.082, 0.045, -0.195, 0.089, -0.043, 0.034, 0.185, -0.058, -0.034, 0.057, -0.126, 0.162, 0.127, -0.184, -0.131, -0.086, -0.102, 0.045, -0.128, -0.122, 0.181, -0.125, 0.193, 0.078, 0.187, -0.068, -0.115, -0.027, 0.126, -0.123, -0.050, -0.057, -0.073, -0.088, 0.085, -0.193, -0.055, 0.033, 0.039, 0.120, 0.148, 0.038, 0.185, -0.027, 0.086, 0.128, -0.098, -0.102, 0.161, -0.019, 0.011, 0.123, 0.019, -0.056, -0.023, 0.079, -0.135, -0.053, -0.101, -0.199, 0.127,
		0.030, -0.183, -0.092, 0.138, -0.067, 0.115, -0.085, -0.036, 0.020, 0.042, -0.074, -0.123, 0.140, 0.017, -0.159, -0.102, 0.133, -0.130, -0.024, 0.138, 0.086, -0.011, -0.017, -0.101, -0.018, 0.136, -0.172, 0.125, -0.039, -0.192, 0.062, -0.113, -0.159, -0.173, -0.169, 0.196, 0.187, 0.149, -0.151, 0.009, -0.030, 0.134, 0.153, 0.056, 0.060, 0.050, -0.049, 0.040, 0.057, -0.040, 0.116, -0.095, -0.167, 0.077, 0.011, 0.145, 0.056, 0.149, -0.108, 0.162, -0.113, -0.067, -0.112, 0.115, -0.083, -0.007, -0.068, 0.067, -0.134, -0.062, -0.010, 0.061, -0.009, -0.075, -0.158,
		-0.063, 0.054, -0.128, -0.194, 0.170, 0.006, -0.187, 0.124, -0.113, 0.063, 0.064, 0.050, 0.082, -0.009, 0.002, 0.189, -0.020, -0.199, -0.103, 0.040, -0.083, -0.124, -0.192, -0.171, 0.175, 0.006, -0.151, -0.012, -0.045, -0.158, 0.126, -0.098, -0.141, 0.065, 0.126, -0.036, -0.086, 0.174, -0.104, 0.123, 0.159, -0.136, -0.056, 0.004, -0.097, -0.054, -0.032, -0.140, 0.096, 0.048, -0.047, -0.098, 0.099, -0.039, -0.141, 0.123, 0.033, -0.053, 0.194, -0.123, -0.129, -0.165, -0.080, 0.103, -0.181, 0.050, 0.141, 0.040, -0.076, 0.030, -0.189, 0.006, -0.113, -0.143, -0.026,
		-0.096, 0.046, 0.059, -0.059, -0.053, 0.011, -0.164, 0.172, -0.150, 0.162, -0.035, -0.019, 0.022, 0.113, 0.073, -0.062, -0.053, 0.060, -0.111, -0.186, 0.161, 0.080, 0.171, 0.153, -0.111, 0.145, 0.153, -0.014, 0.047, 0.039, -0.115, -0.011, -0.135, -0.139, 0.035, 0.152, -0.150, 0.055, 0.158, -0.092, -0.187, -0.144, -0.058, 0.134, -0.051, -0.088, 0.142, 0.016, 0.180, -0.186, -0.115, 0.056, -0.178, 0.157, 0.099, 0.133, 0.136, 0.101, -0.080, 0.186, 0.028, 0.045, -0.191, 0.117, 0.140, -0.200, 0.119, -0.028, -0.092, -0.065, 0.006, -0.189, 0.065, 0.195, 0.187,
		0.029, -0.009, -0.172, -0.152, -0.173, -0.152, -0.191, -0.183, -0.007, -0.165, 0.035, 0.046, -0.087, -0.166, 0.129, 0.108, -0.037, 0.187, 0.007, 0.019, -0.023, 0.143, 0.003, 0.181, -0.035, 0.074, 0.176, -0.157, -0.132, 0.096, 0.178, 0.137, -0.010, 0.082, 0.147, 0.128, -0.147, 0.077, -0.052, 0.188, 0.098, 0.180, -0.048, 0.159, -0.182, -0.085, 0.165, -0.042, -0.134, 0.064, -0.117, 0.085, -0.158, 0.001, -0.035, 0.061, 0.023, -0.019, -0.133, -0.021, 0.045, -0.060, -0.091, -0.177, -0.132, -0.100, -0.121, 0.131, -0.107, -0.136, 0.104, 0.142, -0.012, -0.129, -0.047,
		0.168, -0.091, 0.195, 0.147, -0.169, 0.099, 0.177, -0.097, -0.031, 0.109, 0.135, 0.189, -0.079, -0.116, 0.090, 0.136, -0.114, 0.048, -0.183, -0.107, -0.168, -0.192, 0.046, -0.050, 0.044, -0.064, 0.135, -0.089, 0.148, -0.190, -0.049, -0.152, -0.117, -0.070, -0.059, 0.116, -0.054, 0.184, -0.151, -0.166, -0.024, 0.026, -0.123, 0.162, -0.148, -0.141, 0.026, 0.006, 0.059, 0.053, -0.091, -0.099, -0.114, 0.120, 0.069, 0.118, 0.045, 0.078, -0.118, -0.097, 0.143, -0.016, 0.144, 0.025, -0.112, 0.128, 0.007, -0.066, -0.132, -0.003, -0.090, -0.011, -0.064, 0.122, 0.150,
		-0.119, -0.166, 0.121, 0.137, -0.019, -0.007, 0.111, 0.002, -0.174, -0.091, 0.146, -0.110, -0.048, -0.070, 0.154, 0.069, 0.189, 0.187, 0.123, -0.138, 0.154, 0.009, -0.074, 0.197, 0.162, -0.012, -0.137, -0.186, -0.007, -0.155, -0.068, -0.040, 0.178, 0.128, 0.142, 0.145, -0.156, -0.186, -0.091, -0.131, -0.065, -0.157, 0.104, -0.164, -0.008, -0.088, 0.136, 0.123, -0.122, -0.167, -0.169, 0.060, 0.095, 0.181, 0.195, -0.066, 0.089, -0.000, 0.152, 0.195, 0.182, 0.135, 0.062, -0.022, 0.170, 0.003, -0.128, -0.131, -0.116, -0.163, -0.178, -0.184, 0.186, 0.180, 0.108,
		0.018, 0.063, 0.199, 0.180, 0.176, -0.163, 0.150, -0.199, 0.199, 0.014, 0.124, 0.127, 0.084, 0.128, -0.019, -0.137, 0.036, -0.179, 0.189, 0.055, 0.004, 0.128, 0.057, 0.163, 0.070, 0.017, -0.165, -0.049, -0.002, 0.154, 0.087, -0.037, -0.067, 0.159, 0.083, 0.149, 0.199, -0.156, 0.078, -0.188, 0.129, 0.187, 0.123, 0.092, -0.199, -0.183, -0.010, 0.146, -0.120, -0.026, 0.064, -0.131, 0.185, 0.135, -0.095, 0.121, 0.049, 0.097, 0.196, 0.153, 0.054, 0.178, -0.033, -0.068, -0.131, 0.029, 0.140, -0.021, -0.105, 0.185, -0.044, -0.166, 0.180, 0.058, -0.125,
		-0.115, 0.013, 0.002, 0.100, 0.189, 0.127, -0.164, 0.183, 0.056, 0.197, -0.023, -0.163, 0.050, -0.090, -0.169, -0.082, 0.175, -0.005, 0.031, -0.093, 0.038, -0.074, 0.198, -0.121, 0.173, -0.064, 0.176, 0.164, -0.073, 0.128, -0.117, -0.049, 0.148, 0.004, 0.055, 0.137, -0.100, 0.080, -0.167, 0.098, -0.197, 0.177, -0.119, -0.045, -0.039, 0.053, -0.052, 0.063, -0.158, 0.028, -0.014, -0.089, 0.097, -0.095, 0.196, -0.132, 0.109, 0.125, -0.032, -0.127, -0.110, -0.108, 0.176, -0.165, 0.067, 0.183, 0.089, 0.134, 0.162, -0.061, -0.057, 0.035, -0.199, 0.036, -0.129,
		0.025, -0.013, -0.187, -0.105, 0.094, -0.146, -0.152, -0.189, -0.086, 0.168, -0.086, 0.109, 0.009, 0.137, -0.076, -0.019, -0.104, -0.102, -0.140, 0.064, -0.043, 0.017, 0.182, -0.160, 0.117, 0.060, 0.031, -0.046, 0.123, -0.079, 0.042, 0.157, 0.022, 0.158, -0.087, -0.143, -0.133, 0.151, -0.059, -0.089, -0.115, 0.073, -0.008, -0.147, -0.017, 0.189, -0.076, 0.085, 0.032, -0.164, -0.168, 0.117, 0.150, -0.132, -0.069, 0.002, 0.156, 0.053, 0.011, 0.138, -0.135, -0.032, -0.169, -0.155, -0.098, 0.067, -0.038, 0.152, 0.191, -0.157, -0.084, 0.012, 0.128, -0.157, -0.136,
		0.002, 0.177, -0.048, 0.191, -0.060, -0.108, -0.132, -0.111, 0.163, -0.168, 0.037, -0.140, 0.052, 0.017, -0.194, -0.199, -0.046, 0.182, -0.121, -0.176, -0.150, 0.080, -0.199, 0.002, -0.096, -0.031, 0.108, -0.183, -0.134, 0.007, 0.082, -0.011, 0.010, -0.103, 0.158, -0.018, 0.014, 0.053, -0.197, -0.170, 0.030, 0.087, -0.115, 0.198, -0.105, -0.045, -0.166, -0.004, -0.179, -0.025, -0.125, 0.153, -0.121, -0.088, 0.020, -0.149, -0.137, -0.004, -0.165, 0.105, 0.159, 0.045, 0.080, 0.067, 0.156, -0.039, -0.087, 0.099, 0.164, -0.071, -0.166, 0.056, 0.110, 0.198, 0.111,
		-0.078, -0.170, -0.088, 0.011, 0.098, -0.084, 0.100, -0.160, -0.012, 0.196, -0.006, 0.101, -0.186, -0.016, 0.085, 0.102, -0.115, -0.072, 0.069, -0.042, -0.118, -0.117, 0.090, 0.065, -0.062, -0.022, -0.097, 0.020, 0.085, 0.088, 0.139, 0.140, -0.190, 0.102, -0.077, 0.080, 0.154, 0.184, 0.112, -0.195, -0.058, -0.042, -0.146, -0.027, -0.006, 0.102, -0.004, -0.117, -0.151, -0.122, 0.025, -0.007, -0.198, 0.148, 0.070, -0.061, -0.192, -0.199, -0.144, -0.053, 0.112, 0.076, 0.067, 0.198, 0.161, -0.127, -0.171, 0.109, -0.074, -0.038, 0.091, -0.036, 0.090, 0.100, -0.178,
		0.087, -0.026, -0.110, -0.196, 0.010, -0.144, -0.006, -0.019, -0.002, 0.198, 0.025, 0.124, 0.083, -0.167, 0.033, 0.034, -0.068, -0.178, 0.126, -0.072, 0.184, 0.066, -0.071, -0.074, -0.080, -0.103, -0.051, 0.093, 0.176, -0.036, -0.139, -0.031, -0.174, -0.170, -0.001, -0.109, -0.163, -0.007, -0.180, -0.045, 0.184, 0.164, 0.041, 0.117, -0.109, -0.036, -0.026, -0.171, 0.019, 0.056, 0.106, 0.061, 0.057, 0.100, 0.039, -0.023, 0.121, 0.093, 0.029, -0.199, -0.072, -0.157, -0.052, -0.190, 0.011, -0.031, 0.074, -0.027, -0.165, -0.188, -0.170, -0.067, -0.121, -0.068, 0.019,
		-0.133, -0.126, -0.146, 0.156, 0.009, 0.175, 0.063, 0.095, 0.077, -0.052, 0.173, 0.010, -0.097, 0.175, -0.190, 0.016, 0.026, 0.145, 0.049, 0.046, 0.163, 0.150, 0.170, 0.044, 0.016, 0.194, -0.199, -0.111, -0.151, -0.092, -0.075, 0.140, -0.118, -0.164, -0.169, 0.115, -0.105, 0.169, 0.128, -0.113, 0.020, 0.083, 0.138, -0.085, 0.014, 0.023, -0.067, -0.153, 0.139, 0.199, -0.072, -0.134, 0.155, 0.087, 0.140, -0.059, 0.005, 0.189, 0.169, 0.075, 0.149, 0.132, -0.066, -0.120, 0.014, 0.045, -0.021, -0.131, -0.119, 0.018, -0.084, -0.169, 0.040, 0.022, -0.155,
		-0.187, -0.187, 0.117, 0.037, 0.104, -0.110, 0.108, 0.024, -0.050, -0.171, 0.102, -0.162, 0.135, -0.028, -0.187, 0.041, 0.115, 0.199, -0.150, 0.139, -0.100, -0.053, 0.086, 0.057, -0.143, 0.144, -0.119, -0.030, 0.038, -0.099, -0.106, 0.122, -0.158, 0.061, 0.186, -0.042, -0.160, 0.176, 0.044, 0.055, 0.095, 0.146, -0.047, 0.196, 0.052, 0.101, 0.109, -0.070, 0.199, 0.108, 0.117, 0.001, -0.138, -0.139, 0.124, 0.050, 0.024, -0.107, -0.114, -0.081, 0.041, -0.041, -0.012, -0.072, 0.019, 0.143, -0.155, -0.059, -0.054, -0.188, 0.183, -0.069, 0.026, -0.046, 0.136,
		-0.055, -0.091, 0.074, 0.008, -0.180, -0.136, 0.177, -0.195, 0.096, -0.180, 0.061, 0.012, 0.148, 0.194, -0.118, 0.109, 0.166, 0.016, 0.182, 0.059, -0.151, 0.032, -0.044, -0.101, -0.169, 0.194, 0.059, 0.179, -0.024, -0.098, -0.034, 0.070, 0.150, 0.151, 0.074, 0.056, 0.133, 0.129, 0.120, 0.048, -0.075, 0.019, 0.161, -0.167, 0.145, 0.041, -0.061, 0.127, 0.141, -0.111, 0.105, -0.158, 0.094, -0.130, -0.153, 0.144, -0.154, 0.039, -0.181, -0.119, -0.182, -0.030, -0.123, -0.022, 0.042, -0.085, 0.142, -0.097, 0.150, -0.053, -0.067, 0.018, -0.019, -0.168, 0.033,
		-0.051, -0.006, -0.147, -0.125, 0.185, 0.088, -0.018, -0.041, 0.015, -0.015, -0.189, 0.194, -0.103, -0.009, 0.169, 0.194, 0.145, 0.168, -0.138, 0.121, 0.184, 0.055, -0.063, -0.133, -0.052, 0.163, 0.085, -0.051, -0.075, -0.058, 0.111, -0.088, 0.178, -0.121, 0.034, -0.013, -0.170, 0.114, -0.039, 0.198, -0.159, -0.088, -0.101, -0.032, 0.119, -0.101, -0.139, 0.138, 0.012, -0.118, -0.022, 0.176, 0.162, -0.177, -0.019, -0.107, -0.170, 0.186, -0.107, 0.026, -0.195, 0.043, -0.003, 0.052, -0.190, 0.008, 0.008, 0.111, 0.099, -0.197, -0.167, 0.103, -0.191, 0.023, 0.179,
		0.165, -0.021, -0.077, -0.031, -0.119, -0.149, -0.005, 0.194, -0.126, -0.189, -0.166, 0.000, -0.158, -0.152, -0.119, -0.172, 0.063, 0.045, 0.158, 0.072, -0.122, 0.003, 0.161, -0.019, -0.101, -0.035, -0.127, -0.086, -0.105, -0.147, 0.044, 0.065, -0.173, 0.039, 0.089, -0.053, 0.137, 0.104, 0.005, -0.197, 0.064, 0.073, -0.074, -0.183, 0.151, -0.142, -0.166, -0.034, -0.142, -0.068, 0.091, -0.038, -0.174, -0.199, 0.020, -0.049, 0.026, -0.175, -0.011, 0.164, 0.101, 0.192, 0.045, -0.026, -0.181, -0.059, 0.060, -0.141, 0.154, -0.014, -0.185, -0.051, 0.181, 0.074, 0.051,
		0.173, 0.128, -0.009, -0.002, 0.145, 0.055, -0.120, 0.074, 0.071, -0.057, -0.018, -0.199, 0.033, 0.054, 0.187, -0.198, -0.073, -0.160, 0.097, -0.105, 0.083, 0.120, 0.025, 0.180, -0.024, 0.195, -0.135, 0.023, 0.117, -0.121, 0.010, 0.114, -0.150, 0.153, -0.052, -0.112, 0.100, -0.053, -0.161, 0.200, -0.082, 0.110, -0.128, 0.006, -0.183, 0.193, -0.056, 0.065, 0.157, -0.003, 0.092, -0.196, 0.148, -0.034, -0.171, -0.054, 0.111, -0.079, 0.048, 0.128, -0.024, -0.166, -0.026, -0.140, 0.045, 0.129, 0.011, 0.114, -0.135, 0.085, -0.096, -0.159, -0.197, -0.054, 0.043,
		0.122, 0.165, -0.191, 0.084, 0.025, -0.177, 0.177, -0.163, -0.089, -0.004, -0.119, 0.173, -0.098, -0.163, -0.115, 0.058, -0.044, 0.027, 0.029, -0.027, -0.158, 0.113, -0.191, 0.148, -0.060, -0.060, -0.048, 0.189, 0.159, 0.188, 0.135, -0.132, 0.055, -0.044, 0.008, 0.162, 0.172, -0.039, 0.117, -0.075, 0.058, 0.074, 0.049, 0.028, -0.046, 0.082, -0.015, 0.011, -0.180, -0.141, -0.112, -0.177, -0.101, -0.042, -0.146, 0.032, 0.062, 0.011, -0.046, 0.049, -0.069, 0.193, -0.066, 0.132, -0.080, -0.035, -0.005, -0.195, -0.117, -0.027, 0.111, 0.017, -0.060, -0.153, 0.067,
		-0.092, -0.112, 0.024, -0.039, -0.127, -0.169, -0.022, -0.075, -0.084, 0.011, -0.006, 0.065, 0.186, 0.016, 0.124, -0.081, -0.039, -0.194, 0.025, 0.068, 0.132, 0.005, 0.019, -0.145, -0.006, 0.075, 0.131, -0.160, -0.037, 0.016, -0.095, -0.164, 0.122, 0.040, 0.010, 0.129, 0.077, -0.110, -0.095, -0.183, -0.190, 0.003, 0.143, 0.050, 0.053, -0.042, -0.040, 0.103, -0.136, 0.144, -0.043, -0.042, -0.092, -0.052, 0.102, -0.097, -0.063, -0.011, 0.179, 0.117, -0.125, -0.186, 0.138, 0.076, -0.047, -0.112, -0.164, -0.091, -0.079, -0.033, 0.133, -0.050, -0.121, -0.050, 0.008,
		0.108, -0.176, -0.089, 0.090, -0.008, 0.045, -0.008, -0.094, -0.077, -0.038, -0.088, -0.035, 0.022, 0.002, -0.115, -0.105, 0.140, 0.126, 0.108, -0.063, 0.156, 0.016, 0.109, -0.037, -0.113, 0.126, 0.107, -0.001, -0.059, 0.180, 0.105, 0.049, 0.169, 0.064, -0.112, -0.196, -0.163, -0.019, 0.023, -0.093, -0.159, -0.101, -0.162, -0.159, -0.122, -0.017, 0.095, -0.065, 0.102, -0.196, 0.081, -0.123, -0.086, -0.200, 0.101, 0.130, -0.048, 0.134, -0.193, -0.056, -0.143, 0.120, 0.188, -0.026, 0.022, -0.132, -0.072, -0.091, 0.151, 0.199, 0.017, 0.138, 0.112, 0.105, -0.135,
		0.033, -0.189, 0.108, 0.002, 0.132, 0.163, -0.196, -0.089, 0.065, -0.122, 0.079, 0.125, -0.006, 0.078, -0.167, -0.061, 0.031, 0.136, -0.041, -0.106, -0.082, -0.058, 0.119, 0.130, -0.061, -0.046, -0.053, -0.187, -0.082, 0.072, 0.067, -0.188, -0.030, 0.126, -0.102, -0.017, 0.088, -0.053, 0.154, -0.003, -0.062, 0.119, 0.013, 0.078, 0.124, 0.100, -0.048, -0.035, -0.180, -0.010, -0.158, 0.200, 0.009, -0.078, -0.047, 0.068, -0.073, 0.071, -0.035, 0.028, 0.107, -0.085, 0.047, 0.107, -0.089, -0.119, 0.118, -0.187, -0.177, 0.017, 0.153, -0.145, 0.171, 0.156, -0.085
	};

	float weight_data2[1000] = {
		/* axis = batch 0 */

		/* axis = channel 0 */
		0.154, -0.015, -0.093, -0.033, -0.103, -0.039, -0.162, -0.129, 0.153, -0.037, -0.074, 0.031, -0.014, -0.151, -0.002, -0.090, 0.041, 0.146, 0.160, 0.165, -0.147, -0.086, 0.091, -0.139, -0.114, -0.160, -0.008, -0.083, -0.171, -0.148, -0.144, -0.053, 0.165, -0.072, -0.044, 0.087, 0.154, 0.100, 0.055, -0.080, -0.145, -0.116, -0.126, 0.048, 0.008, 0.027, -0.034, -0.121, -0.045, -0.094, -0.122, 0.007, 0.135, 0.046, 0.085, 0.086, -0.040, 0.063, -0.028, -0.105, -0.060, -0.047, -0.142, 0.009, -0.029, 0.099, 0.141, 0.106, 0.107, 0.161, 0.140, 0.067, 0.021, -0.036, -0.021, 0.124, 0.150, -0.110, 0.015, -0.050, -0.145, 0.130, -0.116, 0.108, 0.001, 0.048, -0.130, -0.112, -0.025, -0.117, -0.031, -0.080, -0.167, -0.099, 0.007, 0.013, -0.006, 0.064, 0.116, -0.094,
		-0.052, 0.049, 0.150, 0.003, 0.121, 0.006, 0.172, 0.086, 0.115, 0.136, 0.046, -0.102, -0.043, -0.086, -0.097, 0.023, 0.168, 0.051, 0.127, 0.020, -0.093, -0.106, -0.037, -0.004, 0.164, 0.002, 0.130, 0.019, 0.139, 0.057, 0.096, -0.147, -0.152, -0.100, 0.160, 0.142, 0.058, -0.146, -0.091, -0.041, -0.056, 0.003, 0.135, -0.155, 0.153, -0.096, -0.098, -0.044, 0.142, -0.001, -0.155, -0.100, -0.126, 0.040, -0.088, -0.093, -0.056, 0.094, 0.164, 0.165, 0.105, 0.079, 0.007, -0.154, -0.071, 0.117, 0.127, -0.124, 0.154, -0.028, 0.106, 0.172, -0.042, -0.071, 0.095, -0.016, -0.088, -0.076, 0.172, 0.149, -0.117, -0.061, -0.166, 0.069, -0.048, -0.105, -0.150, 0.151, -0.014, -0.158, 0.114, -0.168, 0.122, 0.138, 0.136, -0.071, -0.138, 0.124, -0.099, 0.088,
		0.062, 0.156, -0.081, 0.001, 0.017, 0.119, 0.055, -0.031, 0.060, 0.136, -0.154, 0.021, 0.038, 0.107, -0.035, 0.166, 0.010, 0.019, -0.076, 0.131, -0.039, -0.068, -0.172, -0.059, -0.042, -0.134, -0.128, 0.060, 0.043, 0.136, 0.101, -0.134, 0.021, 0.071, -0.014, 0.052, 0.014, -0.001, -0.024, 0.122, -0.043, 0.154, -0.041, -0.042, -0.117, 0.007, -0.109, 0.063, 0.057, 0.112, -0.007, 0.029, -0.002, 0.114, 0.073, -0.159, 0.141, 0.040, -0.071, 0.033, -0.043, 0.146, 0.122, 0.020, 0.038, 0.131, 0.098, 0.053, -0.097, 0.003, -0.087, 0.071, -0.137, -0.106, -0.025, 0.108, 0.045, 0.060, -0.017, -0.156, -0.021, -0.127, 0.098, 0.170, -0.091, -0.132, -0.059, -0.106, 0.150, -0.068, 0.096, -0.087, 0.157, 0.060, 0.132, 0.089, 0.085, 0.085, 0.151, 0.142,
		0.157, 0.162, 0.099, 0.156, 0.088, -0.089, 0.120, -0.147, -0.034, 0.086, -0.124, -0.113, -0.163, 0.059, 0.166, -0.150, -0.120, -0.164, -0.160, 0.083, -0.016, -0.003, 0.043, 0.004, -0.094, 0.024, -0.104, 0.088, -0.123, 0.152, -0.016, -0.170, -0.065, 0.088, -0.009, 0.116, 0.114, -0.135, 0.159, -0.057, -0.139, -0.032, -0.057, 0.025, -0.088, -0.114, -0.065, 0.037, -0.163, -0.133, -0.108, -0.081, 0.129, -0.035, 0.010, 0.071, 0.103, 0.149, -0.034, 0.028, 0.050, 0.054, 0.108, -0.097, 0.013, 0.161, -0.098, -0.089, 0.054, -0.081, -0.039, 0.131, 0.089, 0.156, 0.039, -0.124, 0.052, 0.073, -0.033, 0.072, 0.165, -0.026, 0.109, 0.074, -0.056, -0.002, -0.142, -0.154, 0.028, 0.058, -0.164, -0.123, -0.017, -0.156, -0.009, -0.056, -0.135, 0.084, 0.008, 0.147,
		-0.021, 0.083, 0.018, 0.121, -0.021, 0.110, 0.134, -0.100, 0.051, 0.001, 0.074, 0.056, -0.105, 0.002, -0.017, 0.084, 0.134, -0.092, -0.121, 0.025, -0.060, 0.121, -0.151, 0.034, 0.110, 0.170, 0.046, 0.057, 0.120, 0.003, 0.131, -0.021, -0.089, 0.011, 0.132, -0.053, 0.079, 0.037, 0.040, -0.130, 0.027, -0.020, -0.123, 0.141, -0.150, -0.097, 0.056, -0.040, 0.017, -0.006, -0.150, 0.060, 0.084, 0.015, 0.143, -0.100, 0.105, 0.118, 0.139, -0.081, -0.170, -0.092, 0.103, -0.069, 0.023, 0.103, 0.029, -0.000, 0.118, 0.039, 0.105, 0.169, 0.094, 0.059, -0.029, 0.105, 0.064, 0.126, -0.118, 0.077, 0.076, -0.162, 0.101, -0.165, 0.077, -0.044, 0.025, -0.097, -0.120, -0.091, -0.013, -0.052, -0.135, 0.137, -0.091, -0.172, 0.137, 0.056, -0.089, -0.022,
		0.061, -0.085, 0.101, -0.130, 0.171, -0.041, 0.022, -0.125, 0.016, -0.107, -0.171, 0.076, -0.137, -0.133, -0.134, 0.016, -0.109, -0.063, 0.005, -0.022, 0.121, 0.066, -0.036, 0.016, -0.005, -0.101, -0.097, -0.108, 0.056, -0.170, -0.129, -0.071, 0.017, 0.152, 0.149, 0.171, 0.112, -0.119, 0.133, -0.057, -0.051, -0.063, -0.046, -0.153, -0.005, -0.091, 0.113, 0.044, -0.156, -0.130, -0.122, 0.083, -0.122, 0.024, 0.145, 0.043, 0.113, 0.163, 0.059, 0.129, 0.035, -0.079, 0.068, -0.053, 0.130, 0.038, -0.129, -0.132, -0.006, -0.170, -0.164, -0.033, -0.128, -0.062, -0.123, -0.001, -0.114, 0.152, -0.017, 0.063, 0.015, 0.099, -0.167, 0.038, 0.160, -0.135, -0.091, 0.046, 0.152, 0.082, 0.057, 0.041, -0.024, 0.061, 0.150, 0.052, 0.025, -0.092, 0.092, -0.092,
		0.154, 0.140, -0.033, -0.165, 0.015, -0.059, 0.133, 0.108, 0.106, 0.075, 0.005, 0.154, 0.080, 0.116, 0.076, -0.064, 0.105, 0.001, -0.049, 0.079, 0.018, 0.055, -0.106, 0.044, -0.038, 0.170, -0.146, 0.048, 0.008, 0.045, 0.016, -0.106, -0.023, 0.066, 0.164, -0.118, 0.155, 0.058, -0.089, -0.102, 0.159, 0.125, -0.094, 0.085, -0.147, -0.019, -0.103, 0.019, 0.058, -0.023, 0.008, -0.073, -0.124, 0.086, -0.025, -0.076, -0.171, -0.126, -0.033, 0.171, -0.010, 0.121, -0.039, -0.105, -0.002, -0.157, -0.056, 0.067, 0.122, 0.142, 0.002, 0.112, 0.091, -0.003, 0.040, 0.169, 0.060, -0.034, 0.166, 0.152, -0.094, 0.073, -0.110, -0.081, -0.084, 0.107, -0.142, 0.111, 0.062, 0.087, -0.124, -0.058, 0.076, 0.059, -0.020, -0.002, -0.003, -0.139, 0.047, 0.064,
		0.121, 0.044, -0.119, 0.044, -0.133, 0.014, -0.118, 0.153, 0.158, -0.165, 0.014, 0.033, -0.057, 0.070, -0.162, -0.030, 0.154, -0.173, -0.089, 0.009, 0.101, -0.030, 0.107, -0.067, -0.166, -0.137, 0.054, -0.112, 0.136, 0.023, 0.150, 0.127, 0.009, 0.003, 0.015, 0.116, -0.124, 0.073, -0.051, 0.119, -0.168, -0.165, 0.001, -0.053, -0.097, 0.036, -0.113, -0.023, 0.024, 0.117, -0.157, 0.090, 0.169, 0.164, 0.161, -0.093, -0.113, 0.173, -0.087, 0.043, -0.014, -0.141, -0.134, 0.051, -0.036, 0.152, -0.055, -0.027, -0.047, -0.007, 0.147, 0.053, 0.076, -0.164, 0.154, -0.100, -0.031, -0.066, -0.137, -0.044, -0.028, -0.011, -0.062, -0.097, 0.006, 0.094, -0.087, 0.052, 0.131, 0.071, -0.091, -0.004, 0.118, 0.047, 0.048, 0.119, -0.086, -0.144, 0.061, -0.144,
		-0.083, 0.137, -0.075, -0.022, -0.113, -0.046, 0.091, -0.124, -0.055, -0.169, 0.135, 0.132, 0.059, -0.120, 0.105, -0.044, 0.031, 0.037, -0.015, -0.153, -0.163, -0.119, 0.039, -0.125, -0.120, -0.119, -0.094, 0.042, -0.037, -0.050, -0.047, 0.009, -0.067, 0.135, -0.093, 0.032, 0.129, 0.151, -0.127, -0.038, 0.015, 0.022, 0.133, -0.050, -0.113, -0.095, -0.076, -0.152, -0.007, 0.073, 0.093, 0.080, 0.025, -0.035, 0.148, 0.100, -0.118, 0.068, -0.033, 0.148, -0.024, -0.087, 0.138, 0.055, 0.047, -0.136, -0.052, 0.061, -0.077, 0.023, 0.042, -0.095, 0.013, -0.024, -0.090, 0.070, 0.041, -0.140, 0.082, 0.073, -0.103, 0.119, 0.144, 0.005, 0.131, -0.022, -0.169, 0.128, 0.102, -0.063, 0.108, 0.142, -0.077, 0.022, -0.083, 0.058, 0.033, -0.112, 0.171, -0.028,
		0.057, 0.028, 0.006, 0.100, 0.165, 0.057, -0.044, -0.173, 0.009, 0.113, -0.037, -0.068, 0.137, -0.138, -0.035, -0.135, 0.084, -0.122, -0.079, 0.033, 0.049, -0.139, -0.132, 0.018, 0.104, 0.155, -0.161, 0.161, -0.054, -0.116, 0.009, 0.062, 0.105, 0.090, -0.034, 0.041, -0.007, -0.098, -0.004, -0.059, -0.167, 0.128, -0.049, 0.032, -0.043, 0.006, -0.087, -0.006, -0.145, 0.164, -0.135, 0.129, 0.137, -0.135, -0.039, 0.138, 0.171, 0.146, -0.120, -0.105, -0.104, -0.052, 0.141, -0.043, -0.088, -0.100, 0.137, 0.044, -0.162, 0.093, -0.029, -0.080, -0.046, -0.137, -0.111, -0.085, 0.136, -0.004, -0.125, 0.092, -0.075, 0.046, 0.072, 0.150, -0.167, 0.093, -0.156, -0.151, 0.026, 0.094, -0.032, -0.037, 0.102, 0.154, -0.073, -0.109, 0.026, 0.050, 0.031, 0.023
	};
	//
	Blob kernel, conv_bottom, conv_top;
	kernel.SetBlob(kernel_data, 3, 2, 3, 3);
	conv_bottom.SetBlob(bottom_data, 1, 2, 12, 12);
	Convolution(conv_bottom, kernel, 0, 0, 1, conv_top);
	//
	conv_top.Print();
	//
	Blob pool_top;
	//
	Pooling(conv_top, 3, 3, 0, 0, 2, POOL_MAX, pool_top);
	pool_top.Print();
	//1
	Blob ip1_weight, ip1_top;
	ip1_weight.SetBlob(weight_data1, 1, 1, 100, 75);
	InnerProduct(pool_top, ip1_weight, ip1_weight, ip1_top);
	ip1_top.Print();
	//RELU
	Blob relu_top;
	Relu(ip1_top, relu_top);
	relu_top.Print();
	//2
	Blob ip2_weight, ip2_top;
	ip2_weight.SetBlob(weight_data2, 1, 1, 10, 100);
	InnerProduct(relu_top, ip2_weight, ip2_weight, ip2_top);
	ip2_top.Print();
	//
	vector<int> predict = MaxProbIndex(ip2_top);
	for (int i = 0; i < predict.size(); i++)
	{
		cout << "Predict: " << predict[i] << endl;
	}
	system("pause");
}